T = 1
weights followed by counts = [[-4.2887, -7.8633, 11.8387, -1.8978, 1.0, 3], [-5.573300000000001, -4.591799999999999, 10.0716, -5.1586, 2.0, 1], [-5.588202000000001, -5.616099999999999, 9.13136, -4.50905, 3.0, 5], [-10.617902, -0.6456999999999997, 5.628860000000001, -4.27154, 2.0, 6], [-7.970002000000001, -10.7831, 6.959860000000001, 1.19916, 1.0, 6], [-6.762002000000001, -6.708699999999999, 2.196360000000001, -1.4137399999999998, 2.0, 6], 
[-8.209902000000001, -1.829299999999999, -6.146439999999999, 0.6948600000000003, 1.0, 2], [-9.891902000000002, -8.641399999999999, 0.9933600000000009, 2.0271600000000003, 2.0, 7], [-10.845932000000001, -6.658999999999999, -1.3229399999999991, 0.8314600000000003, 3.0, 3], [-9.058432000000002, -1.8789999999999987, -6.459139999999999, -2.40474, 4.0, 2], [-8.271532000000002, -11.4453, -2.6724399999999986, 5.098660000000001, 3.0, 4], [-11.409232000000003, -7.335699999999999, -7.242539999999998, 4.109030000000001, 2.0, 15], [-17.312632000000004, -0.7677999999999994, -6.565929999999998, -2.57067, 3.0, 2], [-18.126192000000003, -9.924399999999999, -4.416729999999998, 1.6107300000000002, 2.0, 7], [-17.792942000000004, -6.613599999999998, -8.924829999999996, -2.4012699999999993, 3.0, 6], [-15.145042000000004, -16.750999999999998, -7.593829999999997, 3.0694300000000005, 2.0, 3], [-14.983962000000004, -10.288599999999999, -15.951129999999997, 4.591030000000001, 1.0, 9], [-19.194962000000004, -22.7622, -0.9807299999999977, 3.202630000000001, 2.0, 3], [-20.073302000000005, -19.5052, -4.658529999999997, -0.09176999999999902, 3.0, 1], [-21.970702000000006, -15.997799999999998, -6.442729999999997, -3.940869999999999, 4.0, 40], [-23.089502000000007, -12.662099999999999, -7.788229999999997, -5.898169999999999, 5.0, 21], [-22.034302000000007, -11.476399999999998, -10.429329999999997, -5.787839999999998, 6.0, 18], [-19.840002000000005, -6.926099999999998, -15.405329999999996, -8.513239999999998, 7.0, 7], [-24.473802000000006, -19.677, 1.311270000000004, -11.730039999999999, 8.0, 4], [-25.179502000000006, -14.178899999999999, -7.025529999999996, -8.858539999999998, 7.0, 3], [-24.438832000000005, -12.448999999999998, -10.221829999999997, -9.004239999999998, 8.0, 76], [-23.419432000000004, -11.346099999999998, -12.521829999999998, -8.410289999999998, 9.0, 27], [-23.748672000000003, -6.8908999999999985, -17.093629999999997, -7.421489999999998, 8.0, 2], [-25.005472, -8.364199999999999, -14.221829999999997, -6.974959999999998, 9.0, 16], [-25.665552, -11.5902, -10.416029999999997, -5.791359999999997, 10.0, 8], [-26.185022, -8.326899999999998, -13.505529999999997, -4.806439999999998, 9.0, 3], [-24.326622, -16.212899999999998, -11.841229999999996, -2.9680399999999976, 8.0, 18], [-23.710102, -12.318499999999997, -16.568729999999995, -7.362839999999998, 9.0, 24], [-24.408891999999998, -15.695599999999997, -12.447629999999995, -5.858539999999998, 10.0, 47], [-23.090591999999997, -13.793899999999997, -15.758729999999995, -5.793468999999998, 11.0, 91], [-23.060373, -14.845099999999997, -14.356329999999994, -5.019778999999998, 12.0, 13], [-21.042672999999997, -13.046899999999997, -17.314429999999994, -4.809878999999998, 13.0, 54], [-24.129272999999998, -19.683099999999996, -6.773929999999995, -5.701698999999998, 14.0, 11], [-26.577872999999997, -13.365599999999997, -14.737129999999993, -5.9077189999999975, 13.0, 2], [-24.987472999999998, -11.153499999999998, -17.855429999999995, -6.024968999999998, 14.0, 10], [-26.655172999999998, -18.307, -9.962529999999994, -5.057318999999998, 15.0, 3], [-24.263472999999998, -13.750499999999999, -14.951329999999995, -7.956018999999998, 16.0, 15], [-21.615572999999998, -23.8879, -13.620329999999996, -2.485318999999998, 15.0, 15], [-20.395773, -21.7897, 
-16.815729999999995, -2.356888999999998, 16.0, 11], [-19.713973, -16.9393, -22.029029999999995, -8.461188999999997, 17.0, 24], [-22.856272999999998, -29.9758, -6.3517299999999945, -9.122838999999997, 18.0, 3], [-23.375773, -26.7125, -9.441229999999994, -8.137938999999998, 17.0, 9], [-22.364072999999998, -25.810299999999998, -11.791829999999994, -7.710798999999998, 18.0, 2], [-22.883573, -22.546999999999997, -14.881329999999995, -6.725898999999998, 17.0, 15], [-23.403073, -19.283699999999996, -17.970829999999996, -5.740998999999999, 16.0, 19], [-21.372073, -17.431699999999996, -20.982929999999996, -5.737995999999999, 17.0, 10], [-25.858173, -30.720599999999997, -3.6742299999999943, -8.957396, 18.0, 10], [-26.721563, -28.7858, -6.047129999999994, -10.047096, 19.0, 9], [-33.057963, -19.500999999999998, -6.032854999999994, -16.831496, 20.0, 6], [-35.219563, -12.620599999999998, -14.184554999999994, -16.750448000000002, 19.0, 34], [-34.941563, -20.808699999999998, -11.050754999999995, -14.222848000000003, 18.0, 14], [-35.871263, -17.011599999999998, -15.693654999999996, -13.927148000000003, 17.0, 7], [-34.290262999999996, -16.142509999999998, -18.007454999999997, -13.103028000000002, 18.0, 50], [-34.481072999999995, -25.272209999999998, -14.282454999999997, -7.280628000000002, 17.0, 38], [-33.129273, -24.212709999999998, -16.626154999999997, -6.880648000000002, 18.0, 36]]
average error = 0.036

T = 2
weights followed by counts = [[-6.5084, 8.7696, 0.23191, -3.937, 1.0, 3], [-9.0415, 5.8561000000000005, 1.05391, -3.81457, 0.0, 12], [-9.011280999999999, 4.804900000000001, 2.45631, -3.0408799999999996, 1.0, 4], [-13.627280999999998, -5.3739, 6.67481, 1.3836200000000005, 0.0, 3], [-15.075180999999999, -0.4944999999999995, -1.6679900000000005, 3.4922200000000005, -1.0, 23], [-15.308741, 2.7460000000000004, -4.73489, 0.7138200000000006, 0.0, 8], [-13.727741, 3.6150900000000004, -7.048690000000001, 1.5379400000000005, 1.0, 2], [-15.322841, -2.9569099999999997, -2.27979, 0.5944000000000005, 2.0, 3], [-14.763451, -3.2673099999999997, -2.0967200000000004, 1.0409300000000004, 3.0, 5], [-12.732451, -1.4153099999999996, -5.108820000000001, 1.0439330000000004, 4.0, 8], [-15.328551, -10.76431, 4.685379999999999, 0.7637530000000005, 5.0, 2], [-16.282581, -8.78191, 2.3690799999999994, -0.4319469999999995, 6.0, 7], [-16.172261, -6.80781, -0.9977200000000006, -1.0845369999999996, 7.0, 11], [-16.501500999999998, -2.3526100000000003, -5.569520000000001, -0.09573699999999963, 6.0, 37], [-15.079800999999998, -14.00681, -5.511821, 7.006763, 5.0, 5], [-15.847740999999997, -10.54701, -8.952321000000001, 3.5791630000000003, 6.0, 48], [-15.822727999999998, -7.14721, -13.385021000000002, -0.686337, 7.0, 17], [-16.480397999999997, -9.949010000000001, -9.673521000000001, 0.311053, 8.0, 82], [-14.972697999999998, -7.989410000000001, -12.731921, 0.18862300000000004, 9.0, 15], [-19.349998, -13.506110000000001, -1.7929209999999998, -0.21957699999999997, 10.0, 2], [-17.670098, -9.299310000000002, -6.332720999999999, -2.612677, 11.0, 5], [-18.189598, -6.036010000000002, -9.422221, -1.627777, 10.0, 19], [-21.939898, -19.49461, 8.170978999999999, -4.404877, 11.0, 3], [-21.323377999999998, -15.60021, 3.443478999999999, -8.799676999999999, 12.0, 3], [-22.903277999999997, -10.892610000000001, -4.475121000000001, -7.250976999999999, 11.0, 29], [-21.170177999999996, -6.9382100000000015, -9.216321, -9.752676999999998, 12.0, 47], [-18.455877999999995, -18.391710000000003, -11.325521, -5.789776999999999, 
11.0, 74], [-19.161577999999995, -12.893610000000002, -19.662321, -2.918276999999999, 10.0, 3], [-22.392077999999994, -20.107110000000002, -8.019020999999999, -3.864406999999999, 11.0, 2], [-22.230997999999996, -13.644710000000003, -16.376320999999997, -2.3428069999999988, 10.0, 36], [-19.839297999999996, -9.088210000000004, -21.365121, -5.241506999999999, 11.0, 3], [-17.191397999999996, -19.225610000000003, -20.034121, 0.2291930000000013, 10.0, 13], [-18.358097999999995, -20.649310000000003, -17.110021, 0.8903830000000014, 11.0, 2], [-17.750787999999993, -16.694910000000004, -21.882021, -3.5949169999999984, 12.0, 10], [-23.913987999999993, -7.985310000000004, -22.098231000000002, -7.229416999999998, 13.0, 15], [-26.863787999999992, -16.25831, -11.833631000000002, -6.0665169999999975, 14.0, 13], [-25.51198799999999, 
-15.198810000000002, -14.177331000000002, -5.666536999999997, 15.0, 18], [-24.292187999999992, -13.100610000000001, -17.372731, -5.5381069999999974, 16.0, 65], [-24.99097799999999, -16.477710000000002, -13.251631000000001, -4.033806999999998, 17.0, 19], [-23.501377999999992, -13.048910000000003, -17.282531000000002, -5.459706999999998, 18.0, 10], [-24.020877999999993, -9.785610000000002, -20.372031000000003, -4.474806999999998, 17.0, 10], [-28.654677999999993, -22.53651, -3.6554310000000036, -7.6916069999999985, 18.0, 5], [-31.077277999999993, -17.96131, -9.602431000000003, -7.906676999999998, 17.0, 54], [-29.28977799999999, -13.18131, -14.738631000000002, -11.142876999999999, 18.0, 5], [-27.27207799999999, -11.38311, -17.696731, -10.932977, 19.0, 11], [-27.52242799999999, -20.709310000000002, -14.009431, -4.6786769999999995, 18.0, 5], [-26.45872799999999, -17.013610000000003, -18.168830999999997, -6.6165769999999995, 19.0, 94], [-24.264427999999988, -12.463310000000003, -23.144830999999996, -9.341977, 20.0, 4], [-28.75052799999999, -25.752210000000005, -5.836130999999995, -12.561377, 21.0, 7], [-31.06692799999999, -23.124210000000005, -8.989030999999994, -12.475157, 20.0, 17], [-31.00079899999999, -20.632810000000006, -11.929130999999995, -13.096717, 21.0, 36], [-31.52029899999999, -17.369510000000005, -15.018630999999996, -12.111817, 20.0, 39], [-30.07019899999999, -13.762810000000005, -19.074330999999994, -13.708417, 21.0, 15], [-29.325918999999992, -17.535110000000007, -17.461230999999994, -12.133017, 22.0, 33], [-29.84538899999999, -14.271810000000006, -20.550730999999995, -11.148097, 21.0, 12], [-33.66568899999999, -27.326910000000005, -3.592430999999994, -13.453297, 22.0, 4], [-31.970488999999993, -28.392610000000005, -12.421830999999994, -14.402847, 21.0, 25], [-33.71248899999999, -23.583610000000004, -20.636030999999996, -12.336946999999999, 20.0, 16], [-31.69478899999999, -21.785410000000002, -23.594130999999997, -12.127047, 21.0, 45], [-30.10438899999999, -19.573310000000003, -26.712431, -12.244297, 22.0, 15], [-32.04528899999999, -28.258110000000002, -17.557431, -11.303806999999999, 23.0, 11], [-30.82548899999999, -26.159910000000004, -20.752831, -11.175377, 24.0, 24], [-28.79448899999999, -24.307910000000003, -23.764931, -11.172374, 25.0, 373], [-29.313988999999992, -21.044610000000002, -26.854431, -10.187474, 24.0, 22], [-32.91518899999999, -27.583510000000004, -16.331031000000003, -10.677144, 25.0, 13], [-30.52348899999999, -23.027010000000004, -21.319831000000004, -13.575844, 26.0, 20], [-29.73658899999999, -32.59331, -17.533131000000004, -6.072444, 25.0, 4], [-30.06582899999999, -28.138110000000005, -22.104931000000004, -5.083644, 24.0, 1], [-32.09432899999999, -24.291310000000003, -22.739281000000005, -6.258643999999999, 25.0, 58], [-30.414428999999988, -20.08451, -27.279081000000005, -8.651743999999999, 26.0, 16], [-35.46212899999999, -25.88681, -16.035081000000005, -9.041844, 27.0, 67], [-33.72902899999999, -21.93241, -20.776281000000004, -11.543543999999999, 28.0, 28], [-34.05822899999999, -17.47721, -25.348081000000004, -10.554744, 27.0, 25]]
average error = 0.016

T = 3
weights followed by counts = [[-0.23356, 3.2405, -3.0669, -2.7784, 1.0, 5], [-3.1756599999999997, -4.1696, -2.08981, -1.8943400000000001, 0.0, 3], [-4.77886, 0.6166999999999998, -10.60911, 0.22595999999999972, -1.0, 3], [-8.009360000000001, -6.5968, 1.0341900000000006, -0.7201700000000003, 0.0, 3], [-6.691060000000001, -4.6951, -2.2769099999999995, -0.6550990000000003, 1.0, 3], [-6.090560000000001, -2.7624, -5.565709999999999, -0.9792490000000003, 2.0, 5], [-10.57666, -16.0513, 11.742990000000002, -4.198649, 3.0, 4], [-9.894860000000001, -11.2009, 6.529690000000002, -10.302949, 4.0, 6], [-8.839660000000002, -10.0152, 3.8885900000000024, -10.192619, 5.0, 5], [-10.844760000000003, -3.1513999999999998, -4.243409999999997, -9.952519, 4.0, 2], [-10.683680000000003, 3.311, -12.600709999999998, -8.430919000000001, 3.0, 10], [-10.285520000000002, -2.6671000000000005, -13.991909999999997, -7.2688190000000015, 2.0, 3], [-11.183610000000002, -7.153300000000001, -11.791009999999996, -6.761509000000001, 3.0, 29], [-12.954910000000002, -17.919800000000002, -1.5726099999999956, -7.765809000000001, 4.0, 4], [-12.571030000000002, -16.872700000000002, -9.624009999999995, -8.261479000000001, 3.0, 6], [-13.582230000000003, -13.874300000000002, -10.790409999999994, -9.879979000000002, 4.0, 57], [-12.562830000000002, -12.771400000000002, -13.090409999999995, -9.286029000000003, 5.0, 17], [-14.952630000000003, -13.555670000000001, -10.076309999999996, -8.523979000000002, 6.0, 
8], [-13.362230000000002, -11.343570000000001, -13.194609999999996, -8.641229000000003, 7.0, 2], [-16.963430000000002, -17.88247, -2.671209999999995, -9.130899000000003, 8.0, 14], [-16.48975, -14.521970000000001, -7.177609999999995, -13.173999000000002, 9.0, 41], [-17.00925, -11.258670000000002, -10.267109999999995, -12.189099000000002, 8.0, 1], [-18.61215, -11.647700000000002, -8.647109999999994, -10.278799000000003, 9.0, 11], [-16.22045, -7.091200000000002, -13.635909999999996, -13.177499000000003, 10.0, 10], [-15.43355, -16.657500000000002, -9.849209999999996, -5.674099000000003, 9.0, 2], [-21.76995, -7.372700000000002, -9.834934999999996, -12.458499000000003, 10.0, 2], [-21.643710000000002, -17.694300000000002, -6.122834999999997, -6.339999000000003, 9.0, 13], [-21.527790000000003, -14.472400000000002, -9.553034999999998, -9.185699000000003, 10.0, 41], [-19.946790000000004, -13.603310000000002, -11.866834999999998, -8.361579000000003, 11.0, 3], [-17.929090000000002, -11.805110000000003, -14.824934999999998, -8.151679000000003, 12.0, 20], [-21.527590000000004, -25.46441, 2.7802650000000018, -10.644379000000004, 13.0, 2], [-22.812190000000005, -22.19291, 1.0131650000000019, -13.905179000000004, 14.0, 6], [-25.949890000000003, -18.08331, -3.5569349999999984, -14.894809000000004, 13.0, 2], [-27.675590000000003, -13.613610000000001, -11.778834999999997, -13.087509000000004, 12.0, 12], [-27.116200000000003, -13.92401, -11.595764999999997, -12.640979000000005, 13.0, 15], [-27.445400000000003, -9.468810000000001, -16.167564999999996, -11.652179000000006, 12.0, 4], [-28.381270000000004, -14.56961, -11.630864999999996, -10.265579000000006, 13.0, 38], [-28.900770000000005, -11.30631, -14.720364999999997, -9.280679000000006, 12.0, 88], [-27.393070000000005, -9.34671, -17.778764999999996, -9.403109000000006, 13.0, 17], [-28.050740000000005, -12.14851, -14.067264999999995, -8.405719000000007, 14.0, 32], [-28.570240000000005, -8.88521, -17.156764999999996, -7.420819000000007, 13.0, 4], [-32.32054000000001, -22.34381, 0.436435000000003, -10.197919000000006, 14.0, 10], [-34.74314000000001, -17.768610000000002, -5.510564999999997, -10.412989000000007, 13.0, 21], [-36.69074000000001, -12.994810000000003, -14.037564999999997, -8.546189000000007, 12.0, 5], [-34.04284000000001, -23.13221, -12.706564999999998, -3.0754890000000072, 11.0, 5], [-33.031140000000015, -22.23001, -15.057164999999998, -2.648349000000007, 12.0, 1], [-32.78720000000001, -20.756709999999998, -16.476364999999998, -3.233699000000007, 13.0, 5], [-30.756200000000014, -18.904709999999998, -19.488464999999998, -3.230696000000007, 14.0, 61], [-29.266600000000015, -15.475909999999999, -23.519364999999997, -4.6565960000000075, 15.0, 59], [-32.40890000000002, -28.51241, -7.842064999999996, -5.318246000000007, 16.0, 22], [-30.729000000000017, -24.305609999999998, -12.381864999999996, -7.711346000000008, 17.0, 18], [-31.148650000000018, -21.396209999999996, -14.167764999999996, -9.918246000000007, 18.0, 62], [-31.854350000000018, -15.898109999999996, -22.504564999999996, -7.046746000000007, 17.0, 12], [-30.554350000000017, -26.165909999999997, -19.551564999999997, -1.1829460000000065, 16.0, 6], [-35.855550000000015, -18.774409999999996, -19.521865999999996, -8.581646000000006, 17.0, 9], [-35.479180000000014, -19.597989999999996, -18.736435999999994, -7.836406000000006, 18.0, 5], [-33.284880000000015, -15.047689999999996, -23.712435999999993, -10.561806000000006, 19.0, 20], [-33.83843000000002, -22.970989999999997, -16.996835999999995, -9.817866000000006, 20.0, 31], [-34.357900000000015, -19.707689999999996, -20.086335999999996, -8.832946000000005, 19.0, 5], [-32.624800000000015, -15.753289999999996, -24.827535999999995, -11.334646000000005, 20.0, 19], [-30.607100000000013, -13.955089999999997, -27.785635999999997, -11.124746000000005, 21.0, 16], [-33.55690000000001, -22.228089999999995, -17.521035999999995, -9.961846000000005, 22.0, 20], [-31.966500000000014, -20.015989999999995, -20.639335999999997, -10.079096000000005, 23.0, 72], [-32.48600000000001, -16.752689999999994, -23.728835999999998, -9.094196000000005, 22.0, 10], [-32.10963000000001, -17.576269999999994, -22.943405999999996, -8.348956000000005, 23.0, 49], [-34.11623000000001, -24.295269999999995, -13.927205999999996, -8.248971000000004, 24.0, 15], [-34.63570000000001, -21.031969999999994, -17.016705999999996, -7.264051000000005, 23.0, 29], [-34.964940000000006, -16.576769999999996, -21.588505999999995, -6.275251000000004, 22.0, 45], [-34.17804, -26.143069999999994, -17.801805999999996, 1.2281489999999957, 21.0, 2], [-38.40294, -19.873169999999995, -17.643585999999996, -4.317551000000004, 22.0, 18], [-37.08464, -17.971469999999997, -20.954685999999995, -4.252480000000005, 23.0, 109], [-35.29714, -13.191469999999995, -26.090885999999994, -7.488680000000005, 24.0, 4], [-39.31894, -21.495469999999997, -13.535885999999994, -8.998580000000004, 25.0, 39], [-36.92724, -16.938969999999998, -18.524685999999996, -11.897280000000004, 26.0, 2], [-35.62724, -27.20677, -15.571685999999996, -6.0334800000000035, 25.0, 31], [-34.04624, -26.33768, -17.885485999999997, -5.209360000000004, 26.0, 
44], [-32.01524, -24.48568, -20.897585999999997, -5.206357000000004, 27.0, 4], [-30.56514, -20.87898, -24.953286, -6.802957000000005, 28.0, 10], [-33.40424, -27.508979999999998, -14.468385999999999, -7.224087000000004, 29.0, 25], [-31.89654, -25.54938, -17.526785999999998, -7.346517000000004, 30.0, 19], [-32.82624, -21.75228, -22.169686, -7.050817000000004, 29.0, 103], [-33.34574, -18.488979999999998, -25.259186, -6.065917000000004, 28.0, 38], [-37.04184, -32.16688, -7.679686, -8.684017000000004, 29.0, 6], [-37.74754, -26.668779999999998, -16.016486, -5.812517000000004, 28.0, 16], [-36.49034, -21.795679999999997, 
-21.302586, -11.686617000000005, 29.0, 25], [-34.296040000000005, -17.245379999999997, -26.278586, -14.412017000000006, 30.0, 6], [-35.82824000000001, -22.341979999999996, -19.600686, -14.237037000000006, 31.0, 83], [-36.34774000000001, -19.078679999999995, -22.690186, -13.252137000000006, 30.0, 44], [-35.04774000000001, -29.346479999999993, -19.737186, -7.388337000000006, 29.0, 43], [-35.97744000000001, -25.549379999999992, -24.380086000000002, -7.092637000000006, 28.0, 43], [-36.30664000000001, -21.094179999999994, -28.951886000000002, -6.103837000000006, 27.0, 48], [-35.519740000000006, -30.660479999999993, -25.165186000000002, 1.3995629999999943, 26.0, 23], [-36.638540000000006, -27.324779999999993, -26.510686000000003, -0.5577370000000057, 27.0, 21], [-37.15804000000001, -24.061479999999992, -29.600186000000004, 0.4271629999999943, 26.0, 53], [-40.51624000000001, -31.301879999999993, -18.158286000000004, -0.14396700000000573, 27.0, 26], [-39.49684000000001, -30.19897999999999, -20.458286000000005, 0.44998299999999425, 28.0, 9], [-38.433140000000016, -26.503279999999993, -24.617686000000006, -1.4879170000000057, 29.0, 6], [-37.53802000000002, -21.729479999999995, -29.460786000000006, -7.078817000000006, 30.0, 111], [-40.76852000000002, -28.942979999999995, -17.817486000000006, -8.024947000000006, 31.0, 74], [-41.287990000000015, -25.679679999999994, -20.906986000000007, -7.0400270000000065, 30.0, 38], [-39.60809000000002, -21.472879999999993, -25.446786000000007, -9.433127000000006, 31.0, 73], [-40.12759000000002, -18.209579999999992, -28.536286000000008, -8.448227000000006, 30.0, 2], [-41.51629000000002, -23.086879999999994, -22.058886000000008, -8.106437000000007, 31.0, 49], [-42.03579000000002, -19.823579999999993, -25.14838600000001, -7.121537000000007, 30.0, 12], [-40.45479000000002, -18.954489999999993, -27.46218600000001, -6.297417000000007, 31.0, 10], [-43.541390000000014, -25.59068999999999, -16.921686000000008, -7.189237000000007, 32.0, 114], [-42.80379000000001, -20.738189999999992, -21.72028600000001, -12.855137000000006, 33.0, 53], [-41.296090000000014, -18.778589999999994, -24.778686000000008, -12.977567000000006, 34.0, 52], [-39.278390000000016, -16.980389999999993, -27.73678600000001, -12.767667000000007, 35.0, 7], [-42.784390000000016, -29.547089999999994, -12.576186000000009, -13.519827000000006, 36.0, 22], [-41.55649000000002, -25.516189999999995, -17.21968600000001, -17.432327000000008, 37.0, 2]]
average error = 0.016

T = 4
weights followed by counts = [[-1.8076, -8.8131, 8.7086, -0.21682, 1.0, 4], [-8.3849, -2.0114, 9.56343, -7.75122, 2.0, 3], [-6.418200000000001, -13.8166, 9.96815, 0.12068000000000012, 1.0, 4], [-8.4335, -14.25321, 5.381749999999999, 0.4357800000000001, 0.0, 2], [-7.82619, -10.29881, 0.6097499999999991, -4.049519999999999, 1.0, 2], [-11.014890000000001, -6.88451, -2.164450000000001, -3.8469199999999995, 0.0, 5], [-8.98389, -5.032509999999999, -5.176550000000001, -3.8439169999999994, 1.0, 19], [-8.607520000000001, -5.856089999999999, -4.391120000000001, -3.0986769999999995, 2.0, 21], [-7.399520000000001, -1.7816899999999993, -9.154620000000001, -5.711576999999999, 3.0, 4], [-9.828220000000002, -11.163789999999999, -5.906920000000001, -4.257276999999999, 2.0, 11], [-10.533920000000002, -5.665689999999999, -14.243720000000001, -1.3857769999999991, 1.0, 3], [-13.295020000000001, -16.17559, -5.219820000000002, -3.340476999999999, 2.0, 4], [-15.347920000000002, -12.33709, -6.015260000000002, -4.554276999999999, 3.0, 9], [-13.858320000000003, -8.908290000000001, -10.046160000000002, -5.980176999999999, 4.0, 14], [-11.840620000000003, -7.110090000000001, -13.004260000000002, -5.770276999999999, 5.0, 3], [-15.445920000000003, -13.084090000000002, -2.9126600000000025, -6.598736999999999, 6.0, 17], [-18.182420000000004, -8.051590000000001, -9.573460000000003, -6.019846999999999, 5.0, 69], [-15.534520000000004, -18.18899, -8.242460000000003, -0.5491469999999987, 4.0, 3], [-17.996620000000004, -15.42449, -8.868240000000004, -3.4064469999999987, 5.0, 24], [-16.977220000000003, -14.32159, -11.168240000000004, -2.8124969999999987, 6.0, 14], [-23.401920000000004, -4.79049, -11.145396000000005, -9.664196999999998, 7.0, 5], [-22.615020000000005, -14.35679, -7.3586960000000055, -2.160796999999998, 6.0, 22], [-22.014520000000005, -13.35734, -9.571296000000006, -2.063397999999998, 7.0, 27], [-20.662720000000004, -12.29784, -11.914996000000006, -1.663417999999998, 8.0, 88], [-18.929620000000003, -8.343440000000001, -16.656196000000005, -4.165117999999998, 9.0, 6], [-22.679920000000003, 
-21.80204, 0.9370039999999946, -6.942217999999998, 10.0, 5], [-22.654907, -18.402240000000003, -3.495696000000005, -11.207717999999998, 11.0, 20], [-22.592382, -15.472140000000003, -7.042396000000005, -13.881417999999998, 12.0, 7], [-21.372582, -13.373940000000003, -10.237796000000005, -13.752987999999998, 13.0, 1], [-19.791582000000002, -12.504850000000003, -12.551596000000005, -12.928867999999998, 14.0, 87], 
[-20.311082000000003, -9.241550000000004, -15.641096000000005, -11.943967999999998, 13.0, 2], [-20.501892, -18.371250000000003, -11.916096000000005, -6.121567999999998, 12.0, 4], [-21.327902, -15.410150000000003, -13.202496000000005, -7.586267999999998, 13.0, 11], [-19.877802000000003, -11.803450000000003, -17.258196000000005, -9.182867999999997, 14.0, 11], [-20.431352000000004, -19.726750000000003, -10.542596000000005, -8.438927999999997, 15.0, 12], [-22.034552000000005, -14.940450000000002, -19.061896000000004, -6.318627999999997, 14.0, 16], [-23.566752000000005, -20.03705, -12.383996000000003, -6.143647999999997, 15.0, 40], [-21.779252000000003, -15.25705, -17.520196000000002, -9.379847999999997, 16.0, 89], [-24.618352, -21.88705, -7.035296000000002, -9.800977999999997, 17.0, 3], [-25.188952, -21.86225, -8.277396000000003, -9.238877999999996, 16.0, 3], [-23.598552, -19.65015, -11.395696000000003, -9.356127999999996, 17.0, 5], [-24.528252000000002, -15.85305, -16.038596000000002, -9.060427999999996, 16.0, 6], [-25.047752000000003, -12.589749999999999, -19.128096000000003, -8.075527999999997, 15.0, 7], [-23.747752000000002, -22.857549999999996, -16.175096000000003, -2.2117279999999964, 14.0, 2], [-30.256152, -14.087949999999996, -15.943186000000004, -6.148727999999997, 15.0, 66], [-28.748452, -12.128349999999996, -19.001586000000003, -6.271157999999996, 16.0, 15], [-30.145252, -21.798149999999996, -9.536386000000004, -6.619877999999996, 17.0, 21], [-31.509052, -17.022249999999996, -17.954586000000006, -4.736277999999997, 16.0, 4], [-29.314752, -12.471949999999996, -22.930586000000005, -7.461677999999997, 17.0, 9], [-32.820752, 
-25.038649999999997, -7.769986000000005, -8.213837999999997, 18.0, 8], [-33.313562, -21.978149999999996, -9.605586000000004, -11.047837999999997, 19.0, 9], [-33.642762, -17.522949999999994, -14.177386000000004, -10.059037999999997, 18.0, 14], [-31.962861999999998, -13.316149999999993, -18.717186000000005, -12.452137999999998, 19.0, 22], [-30.104461999999998, -21.202149999999993, -17.052886000000004, -10.613737999999998, 18.0, 21], [-30.623931999999996, -17.93884999999999, -20.142386000000005, -9.628817999999997, 17.0, 3], [-28.232231999999996, -13.382349999999992, -25.131186000000007, -12.527517999999997, 18.0, 9], [-29.981231999999995, -19.714349999999992, -19.032486000000006, -12.384857999999998, 19.0, 69], [-30.500731999999996, -16.45104999999999, -22.121986000000007, -11.399957999999998, 18.0, 54], [-33.038031999999994, -23.41004999999999, -13.316586000000006, -9.871057999999998, 19.0, 8], [-33.557531999999995, -20.14674999999999, -16.406086000000005, -8.886157999999998, 18.0, 8], [-32.998141999999994, -20.45714999999999, -16.223016000000005, -8.439627999999999, 19.0, 47], [-33.51761199999999, -17.19384999999999, -19.312516000000006, -7.454707999999999, 18.0, 18], [-32.165811999999995, -16.13434999999999, -21.656216000000008, -7.054727999999999, 19.0, 38], [-35.764312, -29.793649999999992, -4.051016000000008, -9.547428, 20.0, 3], [-36.334911999999996, -29.768849999999993, -5.2931160000000075, -8.985327999999999, 19.0, 6], [-35.861231999999994, -26.40834999999999, -9.799516000000008, -13.028427999999998, 20.0, 6], [-34.849531999999996, -25.50614999999999, -12.150116000000008, -12.601287999999998, 21.0, 29], [-33.531231999999996, -23.604449999999993, -15.461216000000007, -12.536216999999999, 22.0, 8], [-32.467532, -19.908749999999994, -19.620616000000005, -14.474117, 23.0, 3], [-29.819632, -30.046149999999994, -18.289616000000006, -9.003416999999999, 22.0, 40], [-36.779531999999996, -21.053049999999992, -18.071416000000006, -13.575416999999998, 23.0, 21], [-34.748532, -19.20104999999999, -21.083516000000007, -13.572413999999998, 24.0, 41], [-33.448532, -29.46884999999999, -18.130516000000007, -7.708613999999998, 23.0, 47], [-34.378232, -25.67174999999999, -22.773416000000008, -7.412913999999998, 22.0, 38], [-32.928132, -22.06504999999999, -26.829116000000006, -9.009513999999998, 23.0, 112], [-32.141231999999995, -31.63134999999999, -23.042416000000006, -1.5061139999999975, 22.0, 46], [-34.194131999999996, -27.79284999999999, -23.837856000000006, -2.7199139999999975, 23.0, 9], [-39.360231999999996, -19.749549999999992, -23.793591000000006, -7.218213999999998, 24.0, 86], [-37.77923199999999, -18.880459999999992, -26.107391000000007, -6.394093999999998, 25.0, 35], [-35.761531999999995, -17.08225999999999, -29.06549100000001, -6.184193999999998, 26.0, 17], [-34.97463199999999, -26.64855999999999, -25.27879100000001, 1.319206000000002, 25.0, 47], [-33.46693199999999, -24.688959999999987, -28.337191000000008, 1.196776000000002, 26.0, 8], [-39.891631999999994, -15.157859999999987, -28.31434700000001, -5.654923999999998, 27.0, 8], [-43.249832, -22.398259999999986, -16.872447000000008, -6.226053999999998, 28.0, 88], [-42.030032, -20.300059999999988, -20.067847000000008, -6.097623999999998, 29.0, 14], [-42.549502, -17.036759999999987, -23.15734700000001, -5.112703999999998, 28.0, 53], [-40.355202, -12.486459999999987, -28.133347000000008, -7.838103999999998, 29.0, 19], [-40.407181, -19.538559999999986, -26.07924700000001, -4.6873039999999975, 28.0, 88], [-38.548781, -27.424559999999985, -24.41494700000001, -2.8489039999999974, 27.0, 47], [-37.653661, -22.650759999999984, -29.25804700000001, -8.439803999999999, 28.0, 4], [-39.042361, -27.528059999999982, -22.78064700000001, -8.098014, 29.0, 23], [-37.024661, -25.72985999999998, -25.73874700000001, -7.888113999999999, 30.0, 2], [-34.993661, -23.87785999999998, -28.75084700000001, -7.885110999999999, 31.0, 26], [-38.592161000000004, -37.53715999999998, -11.145647000000011, -10.377811, 32.0, 16], [-36.859061000000004, -33.58275999999998, -15.88684700000001, -12.879510999999999, 33.0, 37], [-38.951261, -26.77275999999998, -24.35044700000001, -12.277351, 32.0, 81], [-37.443561, -24.813159999999982, -27.40884700000001, -12.399780999999999, 33.0, 11], [-37.772801, -20.357959999999984, -31.98064700000001, -11.410981, 32.0, 55], [-39.779401, -27.076959999999985, -22.964447000000007, -11.310996, 33.0, 8], [-38.329301, -23.470259999999985, -27.02014700000001, -12.907596, 34.0, 113], [-38.848801, -20.206959999999984, -30.10964700000001, -11.922696, 33.0, 32], [-40.789701, -28.891759999999984, -20.95464700000001, -10.982206, 34.0, 53], [-38.398001, -24.335259999999984, -25.94344700000001, -13.880906, 35.0, 3], [-35.750101, -34.47265999999998, -24.61244700000001, -8.410205999999999, 34.0, 12], [-41.631901, -26.814259999999983, -24.05664700000001, -11.325705999999998, 35.0, 70], [-39.952000999999996, -22.607459999999982, -28.59644700000001, -13.718805999999999, 36.0, 39], [-40.471500999999996, -19.34415999999998, -31.68594700000001, -12.733906, 35.0, 6], [-43.008801, -26.30315999999998, -22.880547000000007, -11.205006, 36.0, 9], [-41.519200999999995, -22.87435999999998, -26.911447000000006, -12.630906, 37.0, 55], [-39.501501, -21.07615999999998, -29.869547000000004, -12.421006, 38.0, 28], [-36.853601, -31.21355999999998, -28.538547000000005, -6.950306, 37.0, 2], [-35.066100999999996, -26.43355999999998, -33.674747, -10.186506000000001, 38.0, 7], [-38.572100999999996, -39.00025999999998, -18.514147, -10.938666000000001, 39.0, 6], [-37.552701, -37.897359999999985, -20.814147000000002, -10.344716000000002, 40.0, 4], [-38.072201, -34.634059999999984, -23.903647000000003, -9.359816000000002, 39.0, 37], [-36.392301, -30.427259999999983, -28.443447000000003, -11.752916000000003, 40.0, 378], [-34.361301000000005, -28.575259999999982, -31.455547000000003, -11.749913000000003, 41.0, 142], [-34.880771, -25.31195999999998, -34.545047000000004, -10.764993000000002, 40.0, 4], [-35.538441000000006, -28.11375999999998, -30.833547000000003, -9.767603000000003, 41.0, 119], [-35.867681000000005, -23.65855999999998, -35.405347000000006, -8.778803000000003, 40.0, 11], [-36.058491000000004, -32.78825999999998, -31.680347000000005, -2.9564030000000034, 39.0, 46], [-43.100591, -23.58825999999998, -31.421017000000006, -7.639603000000004, 40.0, 17], [-43.620091, -20.32495999999998, -34.51051700000001, -6.654703000000004, 39.0, 12], [-47.221291, -26.86385999999998, -23.987117000000005, -7.144373000000004, 40.0, 29], [-47.740791, -23.60055999999998, -27.076617000000006, -6.159473000000005, 39.0, 17]]
average error = 0.016

T = 5
weights followed by counts = [[-2.5559, -3.3605, -2.0321, -0.26809, -1.0, 4], [-2.67306, -2.7562800000000003, -2.41797, -0.327155, 0.0, 9], [-3.68426, 0.2421199999999999, -3.58437, -1.945655, 1.0, 2], [-7.19026, -12.324580000000001, 11.57623, -2.697815, 2.0, 7], [-6.04056, -13.619980000000002, 3.875230000000001, -3.3240849999999997, 1.0, 2], [-10.60026, -11.198880000000003, 1.2339300000000009, -4.940885, 0.0, 3], [-14.70406, -6.391980000000003, -2.115169999999999, -4.4486349999999995, -1.0, 11], [-12.67306, -4.539980000000003, -5.127269999999999, -4.445632, 0.0, 36], [-12.07256, -3.5405300000000026, -7.3398699999999995, -4.348233, 1.0, 9], [-16.55866, -16.829430000000002, 9.968830000000002, -7.567632999999999, 2.0, 4], [-16.33434, -17.350900000000003, 9.564970000000002, -6.365932999999999, 3.0, 1], [-17.31627, -14.555300000000003, 8.330870000000003, -7.932732999999999, 4.0, 3], [-19.08597, -11.122400000000003, 7.116470000000003, -10.311632999999999, 5.0, 6], [-17.86617, -9.024200000000002, 3.9210700000000034, -10.183202999999999, 6.0, 12], [-17.43787, -9.974010000000002, 2.8479700000000037, -9.862103, 7.0, 8], [-16.30657, -11.877710000000002, -4.685929999999996, -10.884103, 6.0, 6], [-15.519670000000001, -21.444010000000002, -0.8992299999999962, -3.3807029999999996, 5.0, 5], [-15.453541000000001, -18.952610000000004, -3.8393299999999964, -4.002262999999999, 6.0, 8], [-14.441841000000002, -18.050410000000003, -6.189929999999997, -3.575122999999999, 7.0, 6], [-14.173071000000002, -13.063410000000003, -11.340729999999997, -9.966422999999999, 8.0, 179], [-14.502271000000002, -8.608210000000003, -15.912529999999997, -8.977623, 7.0, 19], [-16.184271000000003, -15.420310000000004, -8.772729999999996, -7.645322999999999, 8.0, 3], [-17.010281000000003, -12.459210000000004, -10.059129999999996, -9.110023, 9.0, 18], [-14.992581000000003, -10.661010000000005, -13.017229999999996, -8.900123, 10.0, 25], [-15.183391000000004, -19.790710000000004, -9.292229999999996, -3.0777230000000007, 9.0, 3], [-15.676201000000004, -16.730210000000003, -11.127829999999996, -5.911723, 10.0, 10], [-14.656801000000005, -15.627310000000003, -13.427829999999997, -5.317773000000001, 11.0, 33], [-19.822901000000005, -7.584010000000003, -13.383564999999997, -9.816073000000001, 12.0, 12], [-20.073251000000006, -16.910210000000003, -9.696264999999997, -3.5617730000000014, 11.0, 9], [-22.165451000000004, -10.100210000000004, -18.159864999999996, -2.9596130000000014, 10.0, 2], [-22.864241000000003, -13.477310000000005, -14.038764999999996, -1.4553130000000014, 11.0, 11], [-21.800541000000003, -9.781610000000004, -18.198164999999996, -3.393213000000001, 12.0, 19], [-24.367041000000004, -16.664010000000005, -10.656564999999997, -2.685473000000001, 13.0, 59], [-22.786041000000004, -15.794920000000005, -12.970364999999997, -1.861353000000001, 14.0, 57], [-22.624961000000006, -9.332520000000006, -21.327664999999996, -0.33975300000000086, 13.0, 3], [-25.036461000000006, -18.468420000000005, -11.983264999999996, -0.9923430000000009, 14.0, 14], [-25.966161000000007, -14.671320000000005, -16.626164999999997, -0.6966430000000008, 13.0, 84], [-24.516061000000008, -11.064620000000005, -20.681864999999995, -2.293243000000001, 14.0, 16], [-28.11456100000001, -24.723920000000007, -3.076664999999995, -4.785943000000001, 15.0, 5], [-26.76276100000001, -23.664420000000007, -5.420364999999995, -4.385963000000001, 16.0, 2], [-29.31306100000001, -18.71262000000001, -11.793264999999995, -3.970003000000001, 15.0, 21], [-29.832531000000007, -15.449320000000007, -14.882764999999996, -2.9850830000000013, 14.0, 77], [-28.242131000000008, -13.237220000000008, -18.001064999999997, -3.102333000000001, 15.0, 18], [-26.04783100000001, -8.686920000000008, -22.977064999999996, -5.827733000000001, 16.0, 2], [-25.833521000000008, -9.382210000000008, -22.099954999999998, -5.531203000000001, 17.0, 5], [-29.219821000000007, -22.37111000000001, -9.045454999999997, -8.251403000000002, 18.0, 2], [-26.828121000000007, -17.81461000000001, -14.034254999999998, -11.150103000000001, 19.0, 23], [-27.347621000000007, -14.551310000000008, -17.123755, -10.165203000000002, 18.0, 84], 
[-26.788231000000007, -14.861710000000008, -16.940685, -9.718673000000003, 19.0, 9], [-24.140331000000007, -24.99911000000001, -15.609684999999999, -4.247973000000003, 18.0, 3], [-24.846031000000007, -19.501010000000008, -23.946485, -1.3764730000000025, 17.0, 16], [-25.503701000000007, -22.302810000000008, -20.234984999999998, -0.3790830000000025, 18.0, 8], [-23.486001000000005, -20.504610000000007, -23.193084999999996, -0.1691830000000025, 19.0, 4], [-26.755201000000007, -33.24521000000001, -7.635784999999997, -0.31100300000000247, 20.0, 11], [-33.17990100000001, -23.714110000000005, -7.612940999999997, -7.162703000000002, 21.0, 4], [-35.91640100000001, -18.681610000000006, -14.273740999999998, -6.583813000000002, 20.0, 51], [-34.68850100000001, -14.650710000000007, -18.917240999999997, -10.496313000000002, 21.0, 12], [-32.830101000000006, -22.536710000000006, -17.252940999999996, -8.657913000000002, 20.0, 8], [-32.66902100000001, -16.074310000000008, -25.610240999999995, -7.136313000000002, 19.0, 6], [-35.89952100000001, -23.287810000000007, -13.966940999999995, -8.082443000000001, 20.0, 58], [-33.86852100000001, -21.435810000000007, -16.979040999999995, -8.079440000000002, 21.0, 58], [-34.19772100000001, -16.980610000000006, -21.550840999999995, -7.090640000000001, 20.0, 8], [-31.80602100000001, -12.424110000000006, -26.539640999999996, -9.989340000000002, 21.0, 5], [-34.71982100000001, -21.895210000000006, -16.772840999999996, -10.591500000000002, 22.0, 53], [-32.52552100000001, -17.344910000000006, -21.748840999999995, -13.316900000000002, 23.0, 9], [-30.667121000000012, -25.230910000000005, -20.084540999999994, -11.478500000000002, 22.0, 45], [-29.217021000000013, -21.624210000000005, -24.140240999999996, -13.075100000000003, 23.0, 93], [-28.430121000000014, -31.190510000000003, -20.353540999999996, -5.5717000000000025, 22.0, 8], [-27.172921000000013, -26.317410000000002, -25.639640999999997, -11.445800000000002, 23.0, 22], [-27.50216100000001, -21.862210000000005, -30.211440999999997, -10.457000000000003, 22.0, 3], [-29.03436100000001, -26.958810000000003, -23.533540999999996, -10.282020000000003, 23.0, 149], [-29.553861000000012, -23.695510000000002, -26.623040999999997, -9.297120000000003, 22.0, 60], [-30.073361000000013, -20.43221, -29.712540999999998, -8.312220000000003, 21.0, 17], [-33.15996100000001, -27.06841, -19.172041, -9.204040000000003, 22.0, 8], [-31.57896100000001, -26.19932, -21.485841, -8.379920000000002, 23.0, 64], [-29.79146100000001, -21.41932, -26.622041, -11.616120000000002, 24.0, 3], [-30.310931000000007, -18.156019999999998, -29.711541, -10.631200000000002, 23.0, 6], [-32.544931000000005, -25.187419999999996, -22.217941, -10.017860000000002, 24.0, 19], [-31.037231000000006, -23.227819999999994, -25.276341, -10.140290000000002, 25.0, 234], [-31.556701000000004, -19.964519999999993, -28.365841, -9.155370000000001, 24.0, 8], [-35.37700100000001, -33.01961999999999, -11.407540999999998, -11.46057, 25.0, 3], [-37.32460100000001, -28.245819999999988, -19.934540999999996, -9.593770000000001, 24.0, 43], [-38.254301000000005, -24.448719999999987, -24.577440999999997, -9.298070000000001, 23.0, 77], [-36.223301000000006, -22.596719999999987, -27.589540999999997, -9.295067000000001, 24.0, 90], [-39.453801000000006, -29.810219999999987, -15.946240999999997, -10.241197000000001, 25.0, 4], [-39.973301000000006, -26.546919999999986, -19.035740999999998, -9.256297000000002, 24.0, 140], [-38.46560100000001, -24.587319999999984, -22.094140999999997, -9.378727000000001, 25.0, 5], [-37.24580100000001, -22.489119999999986, -25.289540999999996, -9.250297000000002, 26.0, 15], [-37.57500100000001, -18.033919999999988, -29.861340999999996, -8.261497000000002, 25.0, 4], [-40.661601000000005, -24.670119999999987, -19.320840999999994, -9.153317000000001, 26.0, 16], [-38.467301000000006, -20.119819999999986, -24.296840999999993, -11.878717000000002, 27.0, 50], 
[-38.98680100000001, -16.856519999999986, -27.386340999999994, -10.893817000000002, 26.0, 7], [-38.610431000000005, -17.680099999999985, -26.600910999999993, -10.148577000000001, 27.0, 13], [-37.31043100000001, -27.947899999999983, -23.647910999999993, -4.284777000000001, 26.0, 71], [-37.63967100000001, -23.492699999999985, -28.219710999999993, -3.295977000000001, 25.0, 29], [-40.47877100000001, -30.122699999999984, -17.734810999999993, -3.7171070000000013, 26.0, 5], [-40.23483100000001, -28.649399999999986, -19.154010999999993, -4.302457000000001, 27.0, 15], [-38.21713100000001, -26.851199999999984, -22.11211099999999, -4.092557000000001, 28.0, 5], [-35.82543100000001, -22.294699999999985, -27.100910999999993, -6.991257000000001, 29.0, 67], [-36.34493100000001, -19.031399999999984, -30.190410999999994, -6.006357000000001, 28.0, 7], [-35.04493100000001, -29.299199999999985, -27.237410999999994, -0.14255700000000093, 27.0, 3], [-34.30733100000001, -24.446699999999986, -32.036010999999995, -5.808457000000001, 28.0, 38], [-37.91263100000001, -30.420699999999986, -21.944410999999995, -6.636917, 29.0, 223], [-38.43213100000001, -27.157399999999985, -25.033910999999996, -5.652017000000001, 28.0, 7], [-36.401131000000014, -25.305399999999985, -28.046010999999996, -5.649014000000001, 29.0, 154], [-36.920631000000014, -22.042099999999984, -31.135510999999997, -4.664114000000001, 28.0, 37], [-40.512231000000014, -28.270599999999984, -20.896611, -5.8184140000000015, 29.0, 6], [-41.03170100000001, -25.007299999999983, -23.986111, -4.833494000000002, 28.0, 31], [-41.36090100000001, -20.55209999999998, -28.557911, -3.844694000000002, 27.0, 6], [-44.71910100000001, -27.792499999999983, -17.116011, -4.4158240000000015, 28.0, 26], [-43.66390100000001, -26.606799999999982, -19.757111000000002, -4.305494000000001, 29.0, 3], [-43.50282100000001, -20.144399999999983, -28.114411000000004, -2.783894000000001, 28.0, 87], [-41.11112100000001, -15.587899999999983, -33.103211, -5.682594000000001, 29.0, 13], [-43.31942100000001, -24.694799999999983, -24.104111000000003, -5.966654000000001, 30.0, 8], [-41.82982100000001, -21.265999999999984, -28.135011000000002, -7.3925540000000005, 31.0, 25], [-39.81212100000001, -19.467799999999983, -31.093111, -7.182654, 32.0, 28], [-41.344321000000015, -24.56439999999998, -24.415211, -7.007674000000001, 33.0, 11], [-39.15002100000002, -20.01409999999998, -29.391211, -9.733074, 34.0, 20], [-39.80769100000002, -22.81589999999998, -25.679710999999998, -8.735684000000001, 35.0, 171], [-37.41599100000002, -18.25939999999998, -30.668511, -11.634384, 36.0, 9], [-37.60680100000002, -27.38909999999998, -26.943510999999997, -5.811984000000001, 
35.0, 220], [-38.12630100000002, -24.12579999999998, -30.033011, -4.827084000000001, 34.0, 18], [-41.87660100000002, -37.58439999999998, -12.439810999999999, -7.604184000000001, 35.0, 15], [-41.42598100000002, -36.21659999999998, -19.525610999999998, -7.201154000000001, 34.0, 2], [-39.93638100000002, -32.787799999999976, -23.556510999999997, -8.627054000000001, 35.0, 8], [-39.77530100000002, -26.325399999999977, -31.913810999999995, -7.105454000000001, 34.0, 94], [-37.75760100000002, -24.527199999999976, -34.871911, -6.895554000000001, 35.0, 22], [-40.98810100000002, -31.740699999999975, -23.228610999999997, -7.841684000000001, 36.0, 34], [-41.50757100000002, -28.477399999999975, -26.318111, -6.856764000000001, 35.0, 74], [-42.02707100000002, -25.214099999999974, -29.407611, -5.871864000000001, 34.0, 136], [-39.99607100000002, -23.362099999999973, -32.419711, -5.868861000000002, 35.0, 58], [-42.00267100000002, -30.081099999999974, -23.403511, -5.7688760000000014, 36.0, 55], [-40.26957100000002, -26.126699999999975, -28.144711, -8.270576000000002, 37.0, 20], [-38.07527100000002, -21.576399999999975, -33.120711, -10.995976000000002, 38.0, 13], [-42.930671000000025, -27.480099999999975, -22.138911, -11.817966000000002, 39.0, 
7], [-41.57887100000003, -26.420599999999975, -24.482611, -11.417986000000003, 40.0, 97]]
average error = 0.014

T = 6
weights followed by counts = [[-2.7028, 1.6327, 0.83598, -0.091393, 1.0, 4], [-3.2733999999999996, 1.657541, -0.40612000000000004, 0.470687, 0.0, 2], [-6.659699999999999, -11.331358999999999, 12.648380000000001, -2.2495130000000003, 1.0, 4], [-6.415759999999999, -9.858058999999999, 11.229180000000001, -2.8348630000000004, 2.0, 1], [-4.908059999999999, -7.898458999999999, 8.17078, -2.9572930000000004, 3.0, 1], [-6.936559999999999, -4.051658999999999, 7.536430000000001, -4.132293000000001, 4.0, 9], [-4.48926, -16.676358999999998, 6.800700000000001, 3.5289069999999993, 3.0, 8], [-6.66446, -15.867258999999997, 1.698500000000001, 4.208657, 2.0, 2], [-8.40646, -11.058258999999996, -6.515699999999999, 6.274557, 1.0, 2], [-15.36636, -2.065158999999996, -6.2974999999999985, 1.7025569999999997, 2.0, 13], [-13.57886, 2.7148410000000043, -11.433699999999998, -1.5336430000000005, 3.0, 5], [-13.82921, -6.611358999999996, -7.746399999999998, 4.720656999999999, 2.0, 18], [-12.33961, -3.182558999999996, -11.777299999999997, 3.2947569999999993, 3.0, 4], [-15.166310000000001, -12.223258999999995, -2.707899999999997, 2.312426999999999, 4.0, 4], [-16.029700000000002, -10.288458999999996, -5.080799999999996, 1.2227269999999992, 5.0, 27], [-15.827540000000003, -8.370258999999995, -8.363599999999996, 0.6050469999999992, 6.0, 30], [-14.246540000000003, -7.5011689999999955, -10.677399999999997, 1.4291669999999992, 7.0, 21], [-11.854840000000003, -2.9446689999999958, -15.666199999999996, -1.4695330000000006, 8.0, 6], [-15.360840000000003, -15.511368999999997, -0.5055999999999958, -2.2216930000000006, 9.0, 3], [-16.479640000000003, -12.175668999999996, -1.8510999999999957, -4.178993, 
10.0, 17], [-17.821540000000002, -7.753568999999995, -9.941099999999995, -2.444093, 9.0, 20], [-16.46974, -6.694068999999995, -12.284799999999995, -2.0441130000000003, 10.0, 9], [-19.41954, -14.967068999999995, -2.0201999999999956, -0.8812130000000002, 11.0, 2], [-21.511740000000003, -8.157068999999996, -10.483799999999995, -0.2790530000000002, 10.0, 15], [-19.494040000000002, -6.358868999999997, -13.441899999999995, -0.06915300000000021, 11.0, 8], [-21.905540000000002, -15.494768999999996, -4.097499999999995, -0.7217430000000002, 12.0, 12], [-21.839411000000002, -13.003368999999996, -7.037599999999995, -1.3433030000000001, 13.0, 2], [-20.249011000000003, -10.791268999999996, -10.155899999999995, -1.4605530000000002, 14.0, 46], [-19.021111000000005, -6.760368999999996, -14.799399999999995, -5.3730530000000005, 15.0, 
4], [-18.276831000000005, -10.532668999999997, -13.186299999999996, -3.7976530000000004, 16.0, 138], [-18.796331000000006, -7.269368999999997, -16.275799999999997, -2.8127530000000003, 15.0, 7], [-20.737231000000005, -15.954168999999997, -7.120799999999997, -1.8722630000000002, 16.0, 2], [-20.403981000000005, -12.643368999999996, -11.628899999999998, -5.884263, 17.0, 45], [-20.923481000000006, -9.380068999999995, -14.718399999999999, -4.899363, 16.0, 10], [-22.930081000000005, -16.099068999999997, -5.7021999999999995, -4.799378, 17.0, 16], [-22.769001000000006, -9.636668999999998, -14.0595, -3.2777779999999996, 16.0, 2], [-26.367501000000008, -23.295969, 3.5457, -5.770478, 17.0, 10], [-28.816101000000007, -16.978469, -4.4174999999999995, -5.976497999999999, 16.0, 5], [-28.253781000000007, -15.976969, -6.690099999999999, -5.982546599999999, 17.0, 4], [-28.773251000000005, -12.713669, -9.779599999999999, -4.997626599999999, 16.0, 19], [-26.125351000000006, -22.851069, -8.448599999999999, 0.47307340000000053, 15.0, 2], [-29.882351000000007, -17.427469, -12.274099999999999, 1.7256734000000005, 14.0, 43], [-28.870651000000006, -16.525268999999998, -14.624699999999999, 2.1528134000000003, 15.0, 41], [-26.676351000000004, -11.974968999999998, -19.6007, -0.5725865999999997, 16.0, 5], [-27.375141000000003, -15.352068999999998, -15.4796, 0.9317134000000002, 17.0, 32], [-25.642041000000003, -11.397668999999999, -20.2208, -1.5699865999999998, 18.0, 11], [-30.128141000000003, -24.686569, -2.912099999999999, -4.789386599999999, 19.0, 13], [-28.870941000000002, -19.813468999999998, -8.1982, -10.663486599999999, 20.0, 13], [-29.390441000000003, -16.550168999999997, -11.287700000000001, -9.6785866, 19.0, 9], [-29.719641000000003, -12.094968999999997, -15.8595, -8.6897866, 18.0, 2], [-29.343271, -12.918548999999997, -15.07407, -7.9445466, 19.0, 3], 
[-28.556371000000002, -22.484848999999997, -11.287370000000001, -0.4411465999999997, 18.0, 4], [-27.818771, -17.632348999999998, -16.085970000000003, -6.107046599999999, 19.0, 62], [-26.138871, -13.425548999999997, -20.625770000000003, -8.500146599999999, 20.0, 21], [-24.280471000000002, -21.311548999999996, -18.961470000000002, -6.661746599999999, 19.0, 34], [-22.249471000000003, -19.459548999999996, -21.973570000000002, -6.658743599999999, 20.0, 19], [-22.578711000000002, -15.004348999999996, -26.545370000000002, -5.669943599999999, 19.0, 10], [-24.140811000000003, -17.216448999999997, -22.286270000000002, -5.390223599999999, 20.0, 35], [-28.873911000000003, -23.395348999999996, -10.898270000000002, -6.464323599999998, 21.0, 10], [-28.257391000000002, -19.500948999999995, -15.625770000000003, -10.859123599999998, 22.0, 68], [-26.767791000000003, -16.072148999999996, -19.656670000000002, -12.285023599999999, 23.0, 27], [-25.467791000000002, -26.339948999999997, -16.703670000000002, -6.4212235999999985, 22.0, 16], [-32.504191000000006, -17.046848999999995, -16.537730000000003, -10.960823599999998, 23.0, 24], [-31.717291000000007, -26.613148999999993, -12.751030000000004, -3.4574235999999976, 22.0, 3], [-30.813221000000006, -23.242348999999994, -17.249730000000003, -7.153923599999997, 23.0, 57], [-29.461421000000005, -22.182848999999994, -19.593430000000005, -6.753943599999997, 24.0, 2], [-29.980921000000006, -18.919548999999993, -22.682930000000006, -5.769043599999997, 23.0, 80], [-32.820021000000004, -25.549548999999992, -12.198030000000006, -6.190173599999997, 24.0, 22], [-30.802321000000003, -23.75134899999999, -15.156130000000006, -5.980273599999997, 25.0, 8], [-29.738621000000002, -20.055648999999992, -19.315530000000006, -7.918173599999997, 26.0, 25], [-30.258121000000003, -16.79234899999999, -22.405030000000007, -6.933273599999997, 25.0, 5], [-33.488621, -24.00584899999999, -10.761730000000007, -7.879403599999997, 26.0, 30], [-33.817861, -19.550648999999993, -15.333530000000007, -6.890603599999997, 25.0, 2], [-31.786861000000002, -17.698648999999993, -18.345630000000007, -6.887600599999997, 26.0, 184], [-32.306331, -14.435348999999992, -21.435130000000008, -5.902680599999997, 25.0, 29], [-35.904831, -28.09464899999999, -3.829930000000008, -8.395380599999998, 26.0, 3], [-35.895169700000004, -24.53344899999999, -8.236930000000008, -12.805680599999999, 27.0, 9], [-34.445069700000005, -20.92674899999999, -12.292630000000008, -14.4022806, 28.0, 4], [-32.7651697, -16.71994899999999, -16.83243000000001, -16.795380599999998, 29.0, 7], [-30.317869700000003, -29.34464899999999, -17.56816000000001, -9.134180599999997, 28.0, 27], [-32.4100697, -22.53464899999999, -26.03176000000001, -8.532020599999997, 27.0, 234], [-32.9295697, -19.27134899999999, -29.12126000000001, -7.547120599999998, 26.0, 22], [-35.768669700000004, -25.90134899999999, -18.63636000000001, -7.9682505999999975, 27.0, 28], [-36.0979097, -21.44614899999999, -23.20816000000001, -6.979450599999997, 26.0, 46], [-34.5169097, -20.57705899999999, -25.52196000000001, -6.155330599999997, 27.0, 17], [-38.1154097, -34.23635899999999, -7.916760000000011, -8.648030599999998, 28.0, 5], [-36.0977097, -32.43815899999999, -10.87486000000001, -8.4381306, 29.0, 3], [-38.126209700000004, -28.59135899999999, -11.50921000000001, -9.6131306, 30.0, 2], [-38.645709700000005, -25.32805899999999, -14.598710000000011, -8.6282306, 29.0, 1], [-37.62630970000001, -24.22515899999999, -16.898710000000012, -8.0342806, 30.0, 1], [-38.556009700000004, -20.42805899999999, -21.541610000000013, -7.738580600000001, 29.0, 285], [-36.361709700000006, -15.87775899999999, -26.517610000000012, -10.463980600000001, 30.0, 5], [-37.758509700000005, -25.547558999999993, -17.052410000000013, -10.812700600000001, 31.0, 12], [-36.308409700000006, -21.940858999999993, -21.10811000000001, -12.409300600000002, 32.0, 25], [-33.660509700000006, -32.07825899999999, -19.77711000000001, -6.938600600000002, 31.0, 6], [-35.752709700000004, -25.26825899999999, -28.24071000000001, -6.336440600000001, 30.0, 32], [-36.272209700000005, -22.00495899999999, -31.33021000000001, -5.351540600000002, 29.0, 4], [-40.906009700000006, -34.75585899999999, -14.613610000000012, -8.568340600000003, 30.0, 14], [-41.235209700000006, -30.30065899999999, -19.18541000000001, -7.579540600000002, 29.0, 2], [-41.75470970000001, -27.037358999999988, -22.274910000000013, -6.594640600000003, 28.0, 31], [-41.59362970000001, -20.57495899999999, -30.632210000000015, -5.073040600000002, 27.0, 28], [-45.18522970000001, -26.80345899999999, -20.393310000000014, -6.2273406000000024, 28.0, 97], [-43.95732970000001, -22.77255899999999, -25.036810000000013, -10.139840600000003, 29.0, 65], [-41.56562970000001, -18.21605899999999, -30.025610000000015, -13.038540600000003, 30.0, 23], [-44.10292970000001, -25.17505899999999, -21.220210000000016, -11.509640600000003, 31.0, 2], [-42.07192970000001, -23.32305899999999, -24.232310000000016, -11.506637600000003, 32.0, 64], [-42.59139970000001, -20.05975899999999, -27.321810000000017, -10.521717600000002, 31.0, 20], [-41.291399700000014, -30.327558999999987, -24.368810000000018, -4.657917600000002, 30.0, 2], [-39.80179970000001, -26.898758999999988, -28.399710000000017, -6.0838176000000015, 31.0, 95], [-38.21139970000001, -24.686658999999988, -31.518010000000018, -6.201067600000002, 32.0, 37], [-41.44189970000001, -31.900158999999988, -19.874710000000018, -7.147197600000002, 33.0, 20], [-40.37819970000001, -28.20445899999999, -24.03411000000002, -9.085097600000001, 34.0, 90], [-38.92809970000001, -24.59775899999999, -28.08981000000002, -10.681697600000001, 35.0, 20], [-36.89709970000001, -22.74575899999999, -31.10191000000002, -10.678694600000002, 36.0, 58], [-40.717399700000016, -35.80085899999999, -14.14361000000002, -12.983894600000003, 37.0, 5], [-40.44408970000001, -30.92355899999999, -19.06301000000002, -18.803694600000004, 38.0, 2], [-39.799369700000014, -26.31735899999999, -27.41001000000002, -16.093794600000003, 37.0, 51], [-37.151469700000014, -36.45475899999999, -26.07901000000002, -10.623094600000002, 36.0, 16], [-39.15656970000001, -29.590958999999987, -34.21101000000002, -10.382994600000002, 35.0, 11], [-39.67606970000001, -26.327658999999986, -37.300510000000024, -9.398094600000002, 34.0, 3], [-41.34376970000001, -33.481158999999984, -29.407610000000023, -8.430444600000001, 35.0, 63], [-39.55626970000001, -28.701158999999983, -34.54381000000002, -11.666644600000001, 36.0, 26], [-40.07576970000001, -25.437858999999982, -37.63331000000002, -10.681744600000002, 35.0, 16], [-39.288869700000006, -35.00415899999998, -33.84661000000002, -3.1783446000000017, 34.0, 22], [-39.618109700000005, -30.548958999999982, -38.41841000000002, -2.189544600000002, 33.0, 32], [-42.760409700000004, -43.585458999999986, -22.74111000000002, -2.8511946000000017, 34.0, 2], [-48.9607097, -34.90485899999999, -22.73197560000002, -6.5541946000000015, 35.0, 16], [-46.5690097, -30.348358999999988, -27.72077560000002, -9.4528946, 36.0, 19], [-45.0794097, -26.91955899999999, -31.75167560000002, -10.8787946, 37.0, 52], [-43.0617097, -25.121358999999988, -34.70977560000002, -10.668894600000002, 38.0, 17], [-43.5811797, -21.858058999999987, -37.79927560000002, -9.6839746, 37.0, 43], [-42.2811797, -32.125858999999984, -34.84627560000002, -3.8201746000000005, 36.0, 43], [-40.601279700000006, -27.919058999999983, -39.38607560000002, -6.2132746, 37.0, 5], [-45.33437970000001, -34.09795899999998, -27.99807560000002, -7.2873746, 38.0, 8], [-45.66357970000001, -29.642758999999984, -32.56987560000002, -6.298574599999999, 37.0, 385], [-43.27187970000001, -25.086258999999984, -37.558675600000015, -9.1972746, 38.0, 19], [-43.93195970000001, -28.312258999999983, -33.75287560000002, -8.0136746, 39.0, 12], [-44.451429700000006, -25.048958999999982, -36.84237560000002, -7.0287546, 38.0, 23], [-49.499129700000005, -30.85125899999998, -25.59837560000002, -7.4188546, 39.0, 61], [-50.018629700000005, -27.58795899999998, -28.68787560000002, -6.433954600000001, 
38.0, 60], [-48.00092970000001, -25.78975899999998, -31.64597560000002, -6.2240546000000005, 39.0, 42], [-48.52042970000001, -22.526458999999978, -34.73547560000002, -5.239154600000001, 38.0, 9], [-51.35952970000001, -29.156458999999977, -24.250575600000023, -5.660284600000001, 39.0, 68], [-51.68872970000001, -24.70125899999998, -28.822375600000022, -4.6714846, 38.0, 10], [-50.09832970000001, -22.48915899999998, -31.940675600000024, -4.788734600000001, 39.0, 6], [-47.45042970000001, -32.62655899999998, -30.609675600000024, 0.6819653999999993, 38.0, 61], [-47.96992970000001, -29.363258999999978, -33.699175600000025, 1.6668653999999994, 37.0, 47], [-45.93892970000001, -27.511258999999978, -36.71127560000002, 1.6698683999999995, 38.0, 25], [-47.94552970000001, -34.230258999999975, -27.695075600000024, 1.7698533999999995, 39.0, 7], [-46.15802970000001, -29.450258999999974, -32.831275600000026, -1.4663466000000007, 40.0, 11], [-44.47812970000001, -25.243458999999973, -37.371075600000026, -3.859446600000001, 41.0, 29], [-47.56472970000001, -31.87965899999997, -26.830575600000024, -4.751266600000001, 42.0, 9], [-46.075129700000005, -28.450858999999973, -30.861475600000023, -6.177166600000001, 43.0, 168], [-43.88082970000001, -23.900558999999973, -35.837475600000026, -8.902566600000002, 44.0, 73], [-47.63112970000001, -37.35915899999998, -18.244275600000027, -11.679666600000001, 45.0, 4], [-51.38812970000001, -31.935558999999976, -22.06977560000003, -10.427066600000002, 44.0, 35], [-49.797729700000005, -29.723458999999977, -25.18807560000003, -10.544316600000002, 45.0, 29], [-48.347629700000006, -26.116758999999977, -29.243775600000028, -12.140916600000002, 46.0, 31], [-46.4892297, -34.002758999999976, -27.579475600000027, -10.302516600000002, 45.0, 89], [-44.809329700000006, -29.795958999999975, -32.11927560000002, -12.695616600000003, 46.0, 131], [-45.32882970000001, -26.532658999999974, -35.208775600000024, -11.710716600000003, 45.0, 42], [-42.68092970000001, -36.67005899999997, -33.87777560000002, -6.240016600000003, 44.0, 3], [-43.010169700000006, -32.214858999999976, -38.44957560000002, -5.251216600000003, 43.0, 4], [-47.387469700000004, -37.731558999999976, -27.510575600000017, -5.659416600000003, 44.0, 39], [-44.995769700000004, -33.175058999999976, -32.499375600000015, -8.558116600000002, 45.0, 89], [-45.324969700000004, -28.71985899999998, -37.07117560000002, -7.569316600000001, 44.0, 52], [-48.164069700000006, -35.34985899999998, -26.586275600000018, -7.990446600000001, 45.0, 4], [-47.10036970000001, -31.654158999999982, -30.74567560000002, -9.928346600000001, 46.0, 74], [-45.08266970000001, -29.85595899999998, -33.70377560000002, -9.718446600000002, 47.0, 45], [-45.60216970000001, -26.59265899999998, -36.79327560000002, -8.733546600000002, 46.0, 39], [-46.12163970000001, -23.32935899999998, -39.88277560000002, -7.748626600000002, 45.0, 6], [-49.62763970000001, -35.89605899999998, -24.72217560000002, -8.500786600000003, 46.0, 14], [-48.98291970000001, -31.28985899999998, -33.06917560000002, -5.790886600000003, 45.0, 92], [-49.50241970000001, -28.026558999999978, -36.158675600000024, -4.805986600000003, 44.0, 15]]
average error = 0.014

T = 7
weights followed by counts = [[-2.0529, 3.8385, -0.79544, -1.2138, 1.0, 2], [-7.0849, -4.3641000000000005, 1.8301599999999998, -0.17969999999999997, 0.0, 4], [-7.97218, -1.5561000000000007, -1.3130400000000004, -1.3832, 1.0, 28], [-6.00548, -13.3613, -0.9083200000000005, 6.4887, 0.0, 10], [-4.687180000000001, -11.4596, -4.21942, 6.553770999999999, 1.0, 1], [-8.30988, -7.4638, -4.577870000000001, 2.6490709999999993, 2.0, 11], [-8.04111, -2.4768, -9.728670000000001, -3.742229000000001, 3.0, 7], [-8.23192, -11.6065, -6.003670000000001, 2.080170999999999, 2.0, 4], [-12.33572, -6.799600000000001, -9.352770000000001, 2.572420999999999, 1.0, 7], [-12.995800000000001, -10.0256, -5.546970000000002, 3.7560209999999987, 2.0, 14], [-12.028720000000002, -6.183000000000001, -10.478370000000002, -0.37627900000000114, 3.0, 15], [-13.417420000000002, -11.060300000000002, -4.0009700000000015, -0.03448900000000116, 4.0, 9], [-12.405720000000002, -10.158100000000001, -6.3515700000000015, 0.39265099999999886, 5.0, 23], [-12.734920000000002, -5.702900000000001, -10.923370000000002, 1.3814509999999989, 4.0, 6], [-16.33612, -12.241800000000001, -0.3999700000000015, 0.8917809999999988, 5.0, 2], [-16.855620000000002, -8.9785, -3.4894700000000016, 1.8766809999999987, 4.0, 19], 
[-17.1263, -5.7111, -7.045670000000001, -1.2121190000000013, 5.0, 3], [-15.545300000000001, -4.84201, -9.359470000000002, -0.3879990000000013, 6.0, 7], [-13.351, -0.29171000000000014, -14.33547, -3.113399000000001, 7.0, 2], [-17.2921, -13.170910000000001, -1.2757700000000014, -6.425899000000001, 8.0, 2], [-19.7407, -6.853410000000001, -9.238970000000002, -6.631919000000001, 7.0, 81], [-18.5209, -4.755210000000002, -12.434370000000001, -6.503489000000001, 8.0, 3], [-20.0781, -14.636010000000002, -4.325570000000001, -7.5840890000000005, 9.0, 11], [-21.0078, -10.838910000000002, -8.96847, -7.2883890000000005, 8.0, 67], [-21.5273, -7.575610000000002, -12.057970000000001, -6.303489000000001, 7.0, 31], [-22.9241, -17.245410000000003, -2.5927700000000016, -6.652209000000001, 8.0, 3], [-22.36178, -16.243910000000003, -4.865370000000002, -6.658257600000001, 9.0, 11], [-21.621109999999998, -14.514010000000003, -8.061670000000003, -6.8039576, 10.0, 10], [-19.833609999999997, -9.734010000000001, -13.197870000000002, -10.0401576, 11.0, 37], [-20.353079999999995, -6.470710000000001, -16.287370000000003, -9.0552376, 10.0, 7], [-22.192179999999993, -15.55901, -7.045770000000003, -9.1595576, 11.0, 45], [-21.632789999999993, -15.86941, -6.862700000000003, -8.7130276, 12.0, 24], [-21.388849999999994, -14.39611, -8.281900000000004, -9.2983776, 13.0, 16], [-20.325149999999994, -10.70041, -12.441300000000004, -11.236277600000001, 14.0, 75], [-18.466749999999994, -18.58641, -10.777000000000005, -9.397877600000001, 13.0, 3], [-16.786849999999994, -14.37961, -15.316800000000004, -11.790977600000002, 14.0, 76], [-14.769149999999994, -12.58141, -18.274900000000002, -11.581077600000002, 15.0, 4], [-16.025949999999995, -14.05471, -15.403100000000002, -11.134547600000003, 16.0, 20], [-14.725949999999994, -24.32251, -12.450100000000003, -5.270747600000003, 15.0, 9], [-16.887549999999994, -17.44211, -20.601800000000004, -5.189699600000003, 14.0, 21], [-23.395949999999992, -8.672509999999999, -20.369890000000005, -9.126699600000002, 15.0, 16], [-20.748049999999992, -18.80991, -19.038890000000006, -3.655999600000002, 14.0, 30], [-18.717049999999993, -16.95791, -22.050990000000006, -3.652996600000002, 15.0, 5], [-22.710449999999994, -11.124609999999997, -21.503760000000007, -8.590896600000002, 16.0, 4], [-26.302049999999994, -17.353109999999997, -11.264860000000008, -9.745196600000003, 17.0, 16], [-24.950249999999993, -16.293609999999997, -13.608560000000008, -9.345216600000004, 18.0, 14], [-23.359849999999994, -14.081509999999998, -16.72686000000001, -9.462466600000004, 19.0, 51], [-22.572949999999995, -23.64781, -12.94016000000001, -1.9590666000000043, 18.0, 26], [-21.315749999999994, -18.77471, -18.22626000000001, -7.833166600000005, 19.0, 191], [-21.835249999999995, -15.511409999999998, -21.31576000000001, -6.848266600000005, 18.0, 6], [-26.123949999999994, -23.374709999999997, -9.477060000000012, -8.746066600000004, 19.0, 37], [-27.053649999999994, -19.577609999999996, -14.119960000000013, -8.450366600000004, 18.0, 9], [-24.859349999999992, -15.027309999999996, -19.095960000000012, -11.175766600000005, 19.0, 51], [-22.828349999999993, -13.175309999999996, -22.108060000000012, -11.172763600000005, 20.0, 2], [-25.667449999999995, -19.805309999999995, -11.623160000000013, -11.593893600000005, 21.0, 10], [-24.648049999999994, -18.702409999999993, -13.923160000000014, -10.999943600000005, 22.0, 13], [-22.630349999999993, -16.904209999999992, -16.88126000000001, -10.790043600000006, 23.0, 16], [-22.959549999999993, -12.449009999999992, -21.45306000000001, -9.801243600000006, 22.0, 4], [-24.627249999999993, -19.60250999999999, -13.56016000000001, -8.833593600000006, 23.0, 6], [-24.466169999999995, -13.140109999999993, -21.917460000000013, -7.311993600000005, 22.0, 2], [-27.972169999999995, -25.706809999999994, -6.756860000000012, -8.064153600000006, 23.0, 6], [-27.005089999999996, -21.864209999999993, -11.688260000000012, -12.196453600000005, 24.0, 6], [-27.575689999999994, -21.839409999999994, -12.930360000000013, -11.634353600000004, 23.0, 35], [-29.737289999999994, -14.959009999999994, -21.082060000000013, -11.553305600000005, 22.0, 115], [-30.256789999999995, -11.695709999999995, -24.171560000000014, -10.568405600000006, 21.0, 8], [-32.852889999999995, -21.044709999999995, -14.377360000000014, -10.848585600000005, 22.0, 8], [-33.372389999999996, -17.781409999999994, -17.466860000000015, -9.863685600000005, 21.0, 32], [-33.891859999999994, -14.518109999999993, -20.556360000000016, -8.878765600000005, 20.0, 11], [-35.89845999999999, -21.237109999999994, -11.540160000000016, -8.778780600000005, 21.0, 3], [-34.448359999999994, -17.630409999999994, -15.595860000000016, -10.375380600000005, 22.0, 101], [-32.76845999999999, -13.423609999999993, -20.135660000000016, -12.768480600000006, 23.0, 56], [-30.12055999999999, -23.561009999999992, -18.804660000000016, -7.297780600000006, 22.0, 14], [-29.47583999999999, -18.95480999999999, -27.151660000000014, -4.587880600000005, 21.0, 2], [-33.85313999999999, -24.47150999999999, -16.212660000000014, -4.996080600000005, 22.0, 174], [-31.835439999999988, -22.67330999999999, -19.170760000000016, -4.786180600000005, 23.0, 6], [-30.327739999999988, -20.713709999999992, -22.229160000000014, -4.908610600000005, 24.0, 85], [-30.847209999999986, -17.45040999999999, -25.318660000000015, -3.923690600000005, 23.0, 14], [-32.85380999999999, -24.169409999999992, -16.302460000000018, -3.8237056000000047, 24.0, 5], [-31.596609999999988, -19.29630999999999, -21.58856000000002, -9.697805600000006, 25.0, 144], [-30.80970999999999, -28.86260999999999, -17.80186000000002, -2.194405600000006, 24.0, 8], [-29.60170999999999, -24.78820999999999, -22.56536000000002, -4.807305600000006, 25.0, 27], [-27.21000999999999, -20.23170999999999, -27.55416000000002, -7.7060056000000055, 26.0, 64], [-27.72950999999999, -16.968409999999988, -30.643660000000022, -6.721105600000006, 25.0, 13], [-29.43990999999999, -21.746409999999987, -24.432760000000023, -6.323705600000006, 26.0, 13], [-29.95940999999999, -18.483109999999986, -27.522260000000024, -5.338805600000006, 25.0, 12], [-33.34780999999999, -26.698109999999986, -17.190760000000026, -4.356935600000006, 26.0, 44], [-31.560309999999987, -21.918109999999984, -22.326960000000025, -7.593135600000006, 27.0, 9], [-32.07980999999999, -18.654809999999983, -25.416460000000026, -6.608235600000007, 26.0, 2], [-32.77859999999999, -22.031909999999982, -21.295360000000024, -5.103935600000007, 27.0, 59], [-30.584299999999992, -17.481609999999982, -26.271360000000023, -7.829335600000007, 28.0, 9], [-35.31739999999999, -23.66050999999998, -14.883360000000023, -8.903435600000007, 29.0, 34], [-35.64663999999999, -19.205309999999983, -19.45516000000002, -7.914635600000007, 28.0, 3], [-35.48555999999999, 
-12.742909999999984, -27.812460000000023, -6.393035600000006, 27.0, 9], [-32.83765999999999, -22.880309999999984, -26.481460000000023, -0.9223356000000065, 26.0, 73], [-30.806659999999994, -21.028309999999983, -29.493560000000024, -0.9193326000000065, 27.0, 20], [-31.464329999999993, -23.830109999999983, -25.782060000000023, 0.0780573999999935, 28.0, 86], [-29.784429999999993, -19.623309999999982, -30.321860000000022, -2.3150426000000066, 29.0, 37], [-33.80622999999999, -27.927309999999984, -17.766860000000023, -3.8249426000000066, 30.0, 51], [-38.97232999999999, -19.884009999999982, -17.722595000000023, -8.323242600000007, 31.0, 71], [-36.941329999999994, -18.032009999999982, -20.734695000000023, -8.320239600000008, 32.0, 11], [-36.15442999999999, -27.598309999999984, -16.947995000000024, -0.8168396000000078, 31.0, 
6], [-34.92652999999999, -23.567409999999985, -21.591495000000023, -4.729339600000008, 32.0, 80], [-33.19342999999999, -19.613009999999985, -26.332695000000022, -7.231039600000008, 33.0, 9], [-36.46262999999999, -32.35360999999999, -10.775395000000023, -7.372859600000008, 34.0, 5], [-39.03242999999999, -27.946009999999987, -16.760995000000023, -7.450861600000008, 33.0, 14], [-37.58232999999999, -24.339309999999987, -20.816695000000024, -9.047461600000007, 34.0, 18], [-35.79482999999999, -19.559309999999986, -25.952895000000023, -12.283661600000007, 35.0, 14], [-33.14692999999999, -29.696709999999985, -24.621895000000023, -6.8129616000000075, 34.0, 73], [-31.55652999999999, -27.484609999999986, -27.740195000000025, -6.930211600000008, 35.0, 10], [-32.07599999999999, -24.221309999999985, -30.829695000000026, -5.945291600000008, 34.0, 2], [-35.8963, -37.276409999999984, -13.871395000000025, -8.250491600000007, 35.0, 3], [-36.790389999999995, -34.07730999999998, -15.693295000000024, -11.195691600000007, 36.0, 4], [-38.37029, -29.369709999999984, -23.611895000000025, -9.646991600000007, 35.0, 35], [-38.88979, -26.106409999999983, -26.701395000000026, -8.662091600000007, 34.0, 11], [-39.40929, -22.84310999999998, -29.790895000000027, -7.6771916000000076, 33.0, 103], [-43.10539, -36.52100999999998, -12.211395000000028, -10.295291600000008, 34.0, 5], [-42.86145, -35.04770999999998, -13.630595000000028, -10.880641600000008, 35.0, 3], 
[-42.179649999999995, -30.19730999999998, -18.84389500000003, -16.984941600000006, 36.0, 58], [-42.508849999999995, -25.742109999999983, -23.415695000000028, -15.996141600000007, 35.0, 49], [-40.117149999999995, -21.185609999999983, -28.40449500000003, -18.894841600000007, 36.0, 24], [-40.446389999999994, -16.730409999999985, -32.97629500000003, -17.906041600000005, 35.0, 6], [-43.01288999999999, -23.612809999999985, -25.43469500000003, -17.198301600000004, 36.0, 41], [-42.85180999999999, -17.150409999999987, -33.79199500000003, -15.676701600000005, 35.0, 5], [-42.72556999999999, -27.472009999999987, -30.07989500000003, -9.558201600000004, 34.0, 37], [-43.24506999999999, -24.208709999999986, -33.16939500000003, -8.573301600000004, 33.0, 35], [-44.777269999999994, -29.305309999999984, -26.49149500000003, -8.398321600000004, 34.0, 64], [-42.582969999999996, -24.755009999999984, -31.467495000000028, -11.123721600000005, 35.0, 37], [-45.42207, -31.385009999999983, -20.98259500000003, -11.544851600000005, 36.0, 57], [-46.351769999999995, -27.587909999999983, -25.62549500000003, -11.249151600000005, 35.0, 22], [-44.33407, -25.78970999999998, -28.58359500000003, -11.039251600000005, 36.0, 238], [-41.94237, -21.233209999999982, -33.57239500000003, -13.937951600000005, 37.0, 42], [-42.64116, -24.61030999999998, -29.45129500000003, -12.433651600000005, 38.0, 30], [-43.16066, -21.34700999999998, -32.54079500000003, -11.448751600000005, 
37.0, 21], [-45.69796, -28.30600999999998, -23.735395000000032, -9.919851600000005, 38.0, 77], [-43.680260000000004, -26.507809999999978, -26.693495000000034, -9.709951600000005, 39.0, 141], [-44.009460000000004, -22.05260999999998, -31.265295000000034, -8.721151600000006, 38.0, 15], [-47.607960000000006, -35.71190999999998, -13.660095000000034, -11.213851600000005, 39.0, 3], [-49.34996, -30.90290999999998, -21.874295000000032, -9.147951600000006, 38.0, 6], [-47.155660000000005, -26.35260999999998, -26.85029500000003, -11.873351600000007, 39.0, 22], [-47.675160000000005, -23.08930999999998, -29.939795000000032, -10.888451600000007, 38.0, 35], [-46.88826, -32.65560999999998, -26.153095000000032, -3.385051600000007, 37.0, 2], [-46.727180000000004, -26.193209999999983, -34.51039500000003, -1.8634516000000068, 36.0, 6], 
[-50.423280000000005, -39.87110999999998, -16.93089500000003, -4.481551600000007, 37.0, 6], [-48.93368, -36.44230999999998, -20.96179500000003, -5.907451600000007, 38.0, 24], [-47.61538, -34.54060999999998, 
-24.27289500000003, -5.842380600000007, 39.0, 17], [-46.03438, -33.67151999999998, -26.58669500000003, -5.018260600000008, 40.0, 30], [-44.52668, -31.711919999999978, -29.64509500000003, -5.140690600000007, 
41.0, 3], [-42.93628, -29.49981999999998, -32.76339500000003, -5.2579406000000075, 42.0, 126], [-40.90528, -27.647819999999978, -35.775495000000035, -5.254937600000008, 43.0, 12], [-44.92708, -35.95181999999998, -23.220495000000035, -6.764837600000008, 44.0, 144], [-44.189479999999996, -31.099319999999977, -28.019095000000036, -12.430737600000008, 45.0, 59], [-42.599079999999994, -28.887219999999978, -31.137395000000037, -12.547987600000008, 46.0, 218], [-43.118579999999994, -25.623919999999977, -34.226895000000034, -11.563087600000008, 45.0, 12], [-43.638079999999995, -22.360619999999976, -37.316395000000036, -10.578187600000009, 44.0, 8], [-45.32008, -29.172719999999977, -30.176595000000034, -9.245887600000009, 45.0, 77], [-43.28908, -27.320719999999977, -33.18869500000004, -9.242884600000009, 46.0, 307], [-43.80858, -24.057419999999976, -36.27819500000004, -8.25798460000001, 45.0, 18], [-48.485079999999996, -29.721019999999974, -25.309195000000038, -8.59247460000001, 46.0, 16], [-46.093379999999996, -25.164519999999975, -30.29799500000004, -11.49117460000001, 47.0, 45], [-45.30647999999999, -34.73081999999997, -26.51129500000004, -3.9877746000000096, 46.0, 10], [-45.82594999999999, -31.467519999999972, -29.60079500000004, -3.00285460000001, 45.0, 80], [-44.03844999999999, -26.68751999999997, -34.73699500000004, -6.23905460000001, 46.0, 73], [-43.25154999999999, -36.25381999999997, -30.950295000000043, 1.26434539999999, 45.0, 17], [-47.39944999999999, -29.13131999999997, -31.033699000000045, -5.15285460000001, 46.0, 122], [-47.91894999999999, -25.86801999999997, -34.12319900000004, -4.1679546000000105, 45.0, 21], [-51.51744999999999, -39.52731999999997, -16.517999000000042, -6.660654600000011, 46.0, 30], [-52.08804999999999, -39.50251999999997, -17.760099000000043, -6.098554600000011, 45.0, 24], [-53.017749999999985, -35.70541999999997, -22.402999000000044, -5.8028546000000105, 44.0, 1], [-53.537219999999984, -32.44211999999997, -25.492499000000045, -4.817934600000011, 43.0, 11], [-52.642099999999985, -27.668319999999966, -30.335599000000045, -10.408834600000011, 44.0, 12], [-50.250399999999985, -23.111819999999966, -35.32439900000004, -13.307534600000011, 45.0, 28], [-50.90806999999999, -25.913619999999966, -31.61289900000004, -12.310144600000012, 46.0, 71], [-51.42756999999999, -22.650319999999965, -34.70239900000004, -11.325244600000012, 45.0, 46], [-54.26666999999999, -29.280319999999964, -24.217499000000043, -11.746374600000012, 46.0, 15], [-52.67626999999999, -27.068219999999965, -27.335799000000044, -11.863624600000012, 47.0, 8], [-53.19576999999999, -23.804919999999964, -30.425299000000045, -10.878724600000012, 46.0, 34], [-53.52496999999999, -19.349719999999962, -34.99709900000005, -9.889924600000013, 45.0, 5], [-56.75546999999999, -26.563219999999962, -23.35379900000005, -10.836054600000013, 46.0, 62], [-55.30536999999999, -22.956519999999962, -27.409499000000046, -12.432654600000014, 47.0, 42], [-53.724369999999986, -22.087429999999962, -29.723299000000047, -11.608534600000013, 48.0, 8], [-51.076469999999986, -32.22482999999996, -28.392299000000047, -6.137834600000013, 47.0, 110], [-49.05876999999999, -30.42662999999996, -31.350399000000046, -5.927934600000013, 48.0, 104], [-47.37886999999999, -26.21982999999996, -35.890199000000045, -8.321034600000013, 49.0, 7]]
average error = 0.014

T = 8
weights followed by counts = [[0.0096613, 3.5612, -4.407, -4.4103, 1.0, 2], [-2.6767387, 3.4639349999999998, -3.7903700000000002, -4.349108, 2.0, 3], [-4.6906387, -2.6776650000000006, -4.16966, -4.918488, 1.0, 3], [-5.4652487, -4.554465, -1.7673600000000005, -3.786588, 2.0, 7], [-5.9847487, -1.2911650000000003, -4.856860000000001, -2.801688, 1.0, 2], [-5.0675687, -11.279565000000002, -6.037260000000001, 2.424612, 0.0, 3], [-5.6879987, -10.720865000000002, -6.4231300000000005, 1.7603820000000003, 1.0, 6], [-10.7176987, -5.750465000000002, -9.92563, 1.9978920000000002, 0.0, 22], [-12.2797987, -7.9625650000000014, -5.66653, 2.2776120000000004, 1.0, 28], [-10.9614987, -6.0608650000000015, -8.97763, 2.3426830000000005, 2.0, 3], [-14.5626987, -12.599765000000001, 1.545770000000001, 1.8530130000000005, 3.0, 4], [-12.8295987, -8.645365000000002, -3.195429999999999, -0.6486869999999996, 4.0, 14], [-13.7592987, -4.848265000000001, -7.838329999999999, -0.35298699999999955, 3.0, 37], [-17.5095987, -18.306865000000002, 9.75487, -3.1300869999999996, 4.0, 2], [-17.1257187, -17.259765, 1.7034700000000011, -3.6257569999999997, 3.0, 7], [-18.2445187, -13.924065000000002, 0.35797000000000123, -5.583057, 4.0, 3], [-17.7363887, -13.446075000000002, -1.6224299999999987, -5.005917, 5.0, 7], [-17.119868699999998, -9.551675000000003, -6.349929999999999, -9.400717, 6.0, 16], [-16.560478699999997, -9.862075000000003, -6.166859999999999, -8.954187000000001, 7.0, 12], [-13.861578699999997, -22.060475000000004, -6.843469999999999, -0.40598700000000143, 6.0, 10], [-17.050278699999996, -18.646175000000003, -9.617669999999999, -0.20338700000000143, 5.0, 10], [-16.576598699999995, -15.285675000000003, -14.12407, -4.246487000000001, 6.0, 4], [-20.569998699999996, -9.452375000000004, -13.576839999999999, -9.184387000000001, 7.0, 24], [-24.075998699999996, -22.019075000000004, 1.5837600000000016, -9.936547000000001, 8.0, 14], [-23.475498699999996, -20.086375000000004, -1.7050399999999986, -10.260697, 9.0, 4], [-25.480598699999994, -13.222575000000003, -9.837039999999998, -10.020597, 8.0, 3], [-25.505912699999996, -13.396405000000003, -9.950429999999999, -8.800797000000001, 9.0, 2], [-24.442212699999995, -9.700705000000003, -14.109829999999999, -10.738697000000002, 10.0, 8], [-25.099882699999995, -12.502505000000003, -10.398329999999998, -9.741307000000003, 11.0, 8], [-23.649782699999996, -8.895805000000003, -14.454029999999998, -11.337907000000003, 12.0, 30], [-21.001882699999996, -19.033205000000002, -13.123029999999998, -5.867207000000003, 11.0, 35], [-19.321982699999996, -14.826405000000001, -17.66283, -8.260307000000003, 12.0, 10], [-22.552482699999995, -22.039905, -6.01953, -9.206437000000003, 13.0, 5], [-22.832632699999994, -18.967005, -9.40523, -12.121937000000003, 14.0, 25], [-21.820932699999993, -18.064805, -11.75583, -11.694797000000003, 15.0, 19], [-19.626632699999995, -13.514505, -16.73183, -14.420197000000003, 16.0, 28], [-17.768232699999995, -21.400505, -15.067529999999998, -12.581797000000003, 15.0, 17], [-19.821132699999996, -17.562005, -15.862969999999997, -13.795597000000004, 16.0, 26], [-17.790132699999997, -15.710004999999999, -18.875069999999997, -13.792594000000005, 17.0, 18], [-17.663892699999998, -26.031605, -15.162969999999998, -7.674094000000005, 16.0, 5], [-23.5672927, -19.463704999999997, 
-14.486359999999998, -14.353794000000004, 17.0, 8], [-23.896532699999998, -15.008504999999998, -19.058159999999997, -13.364994000000005, 16.0, 37], [-24.4160327, -11.745204999999999, -22.14766, -12.380094000000005, 15.0, 8], [-29.463732699999998, -17.547504999999997, -10.903659999999999, -12.770194000000005, 16.0, 20], [-30.393432699999998, -13.750404999999997, -15.54656, -12.474494000000005, 15.0, 9], [-30.3632137, -14.801604999999997, -14.14416, -11.700804000000005, 16.0, 17], [-29.1434137, -12.703404999999997, -17.33956, -11.572374000000005, 17.0, 11], [-28.3565137, -22.269704999999995, -13.552859999999999, -4.068974000000005, 16.0, 11], [-27.749203700000002, -18.315304999999995, -18.32486, -8.554274000000005, 17.0, 102], [-26.241503700000003, -16.355704999999993, -21.38326, -8.676704000000004, 18.0, 12], [-26.901583700000003, -19.581704999999992, -17.57746, -7.493104000000004, 19.0, 8], [-25.411983700000004, -16.152904999999993, -21.608359999999998, -8.919004000000005, 20.0, 19], [-29.010483700000005, -29.81220499999999, -4.003159999999998, -11.411704000000004, 21.0, 3], [-30.736183700000005, -25.342504999999992, -12.225059999999997, -9.604404000000004, 20.0, 13], [-29.769103700000006, -21.49990499999999, -17.156459999999996, -13.736704000000003, 21.0, 18], [-27.751403700000004, -19.70170499999999, -20.114559999999997, -13.526804000000004, 22.0, 19], [-28.080603700000005, -15.24650499999999, -24.686359999999997, -12.538004000000004, 21.0, 9], [-31.900903700000004, -28.301604999999988, -7.728059999999996, -14.843204000000004, 22.0, 2], [-31.338583700000004, -27.300104999999988, -10.000659999999996, -14.849252600000003, 23.0, 
9], [-30.319183700000004, -26.19720499999999, -12.300659999999997, -14.255302600000004, 24.0, 3], [-27.927483700000003, -21.64070499999999, -17.28946, -17.154002600000005, 25.0, 16], [-26.346483700000004, -20.77161499999999, -19.60326, -16.329882600000005, 26.0, 5], [-27.052183700000004, -15.273514999999989, -27.94006, -13.458382600000004, 25.0, 2], [-28.584383700000004, -20.370114999999988, -21.262159999999998, -13.283402600000004, 26.0, 178], [-27.797483700000004, -29.93641499999999, -17.475459999999998, -5.780002600000004, 25.0, 11], [-33.99778370000001, -21.25581499999999, -17.466325599999998, -9.483002600000004, 26.0, 44], [-31.966783700000008, -19.40381499999999, -20.478425599999998, -9.479999600000005, 27.0, 85], [-31.80570370000001, -12.941414999999992, -28.835725599999996, -7.958399600000004, 26.0, 4], [-35.62600370000001, -25.99651499999999, -11.877425599999995, -10.263599600000004, 27.0, 9], [-34.30770370000001, -24.09481499999999, -15.188525599999995, -10.198528600000005, 28.0, 45], [-36.12930370000001, -17.620014999999988, -23.239925599999992, -9.779978600000005, 27.0, 2], [-33.48140370000001, -27.757414999999988, -21.908925599999993, -4.309278600000005, 26.0, 63], [-31.748303700000008, -23.803014999999988, -26.650125599999992, -6.810978600000006, 27.0, 54], [-32.07750370000001, -19.34781499999999, -31.22192559999999, -5.822178600000005, 26.0, 7], [-34.07410370000001, -28.84791499999999, -21.53992559999999, -5.9510686000000055, 27.0, 40], [-32.85430370000001, -26.74971499999999, -24.73532559999999, -5.822638600000006, 28.0, 2], [-30.46260370000001, -22.19321499999999, -29.72412559999999, -8.721338600000006, 29.0, 31], [-32.17300370000001, -26.97121499999999, -23.51322559999999, -8.323938600000007, 30.0, 14], [-30.155303700000008, -25.17301499999999, -26.471325599999993, -8.114038600000008, 31.0, 29], [-30.67480370000001, -21.909714999999988, -29.560825599999994, -7.129138600000008, 30.0, 1], [-34.27600370000001, -28.44861499999999, -19.03742559999999, -7.618808600000008, 31.0, 22], [-34.98170370000001, -22.95051499999999, -27.374225599999992, -4.747308600000008, 30.0, 23], [-38.21220370000001, -30.16401499999999, -15.730925599999992, -5.693438600000008, 31.0, 14], [-38.54144370000001, -25.708814999999987, -20.30272559999999, -4.704638600000008, 30.0, 50], [-39.06091370000001, -22.445514999999986, -23.392225599999993, -3.719718600000008, 29.0, 14], [-37.571313700000005, -19.016714999999987, -27.42312559999999, -5.145618600000008, 30.0, 5], [-40.8405137, -31.757314999999988, -11.865825599999992, -5.287438600000008, 31.0, 2], [-41.3600137, -28.494014999999987, -14.955325599999991, -4.302538600000008, 30.0, 14], [-42.2897137, -24.696914999999986, -19.598225599999992, -4.006838600000008, 29.0, 2], [-41.0817137, -20.622514999999986, -24.361725599999993, -6.619738600000008, 30.0, 14], [-40.2948137, -30.188814999999984, -20.575025599999993, 
0.8836613999999923, 29.0, 41], [-44.4427137, -23.066314999999985, -20.658429599999995, -5.533538600000008, 30.0, 5], [-42.6552137, -18.286314999999984, -25.794629599999993, -8.769738600000007, 31.0, 22], [-40.0073137, -28.423714999999984, -24.463629599999994, -3.2990386000000074, 30.0, 13], [-38.426313699999994, -27.554624999999984, -26.777429599999994, -2.4749186000000076, 31.0, 50], [-36.232013699999996, -23.004324999999984, -31.753429599999993, -5.200318600000008, 32.0, 25], [-40.619613699999995, -30.731024999999985, -19.78792959999999, -6.654618600000008, 33.0, 8], [-41.54931369999999, -26.933924999999984, -24.430829599999992, -6.358918600000008, 32.0, 16], [-42.06881369999999, -23.670624999999983, -27.520329599999993, -5.374018600000008, 31.0, 37], [-39.67711369999999, -19.114124999999984, -32.509129599999994, -8.272718600000008, 32.0, 8], [-42.27321369999999, -28.463124999999984, -22.714929599999994, -8.552898600000008, 33.0, 10], [-40.54011369999999, -24.508724999999984, -27.456129599999993, -11.054598600000007, 
34.0, 34], [-41.05961369999999, -21.245424999999983, -30.545629599999994, -10.069698600000008, 33.0, 31], [-41.717283699999996, -24.047224999999983, -26.834129599999994, -9.072308600000008, 34.0, 46], [-40.93038369999999, -33.61352499999998, -23.047429599999994, -1.5689086000000083, 33.0, 5], [-39.702483699999995, -29.582624999999982, -27.690929599999993, -5.481408600000009, 34.0, 110], [-38.0225837, -25.37582499999998, -32.23072959999999, -7.874508600000009, 35.0, 59], [-41.6210837, -39.03512499999998, -14.62552959999999, -10.367208600000009, 36.0, 2], [-42.9848837, -34.25922499999998, -23.043729599999992, -8.483608600000009, 35.0, 18], [-42.2472837, -29.40672499999998, -27.842329599999992, -14.149508600000008, 36.0, 171], [-42.7667837, -26.14342499999998, -30.931829599999993, -13.164608600000008, 35.0, 1], [-43.0959837, -21.68822499999998, -35.5036296, -12.175808600000009, 34.0, 15], [-43.8688637, -29.13552499999998, -29.011629599999996, -11.814618600000008, 35.0, 87], [-44.1981037, -24.680324999999982, -33.583429599999995, -10.825818600000009, 34.0, 135], [-41.5502037, -34.81772499999998, -32.25242959999999, -5.355118600000009, 33.0, 49], [-40.1001037, -31.21102499999998, -36.308129599999994, -6.951718600000008, 34.0, 91], [-43.186703699999995, -37.84722499999998, -25.767629599999992, -7.8435386000000085, 35.0, 25], [-41.1557037, -35.995224999999984, -28.779729599999992, -7.840535600000009, 36.0, 39], [-40.5109837, -31.389024999999982, -37.12672959999999, -5.130635600000009, 35.0, 20], [-43.653283699999996, -44.42552499999998, -21.449429599999988, -5.7922856000000085, 36.0, 6], [-49.98968369999999, -35.140724999999975, -21.435154599999986, -12.576685600000008, 37.0, 38], [-48.25658369999999, -31.186324999999975, -26.176354599999986, -15.078385600000008, 38.0, 12], [-46.806483699999994, -27.579624999999975, -30.232054599999984, -16.674985600000007, 39.0, 60], [-46.01958369999999, -37.14592499999998, -26.445354599999984, -9.171585600000007, 38.0, 44], [-44.339683699999995, -32.939124999999976, -30.985154599999984, -11.564685600000008, 39.0, 62], [-42.74928369999999, -30.727024999999976, -34.103454599999985, -11.681935600000008, 40.0, 12], [-43.26878369999999, -27.463724999999975, -37.192954599999986, -10.697035600000008, 39.0, 80], [-46.6269837, -34.704124999999976, -25.751054599999986, -11.268165600000009, 40.0, 10], [-47.146453699999995, -31.440824999999975, -28.840554599999987, -10.283245600000008, 39.0, 37], [-44.9521537, -26.890524999999975, -33.81655459999999, -13.008645600000008, 40.0, 35], [-47.7912537, -33.52052499999998, -23.33165459999999, -13.429775600000008, 41.0, 28], [-48.720953699999995, -29.723424999999978, -27.97455459999999, -13.134075600000008, 40.0, 2], [-46.329253699999995, -25.166924999999978, -32.96335459999999, -16.032775600000008, 41.0, 5], [-46.520063699999994, -34.29662499999998, -29.238354599999987, -10.210375600000008, 40.0, 13], [-46.84930369999999, -29.84142499999998, -33.81015459999999, -9.221575600000008, 39.0, 23], [-47.368803699999994, -26.57812499999998, -36.89965459999999, -8.236675600000009, 38.0, 33], [-51.1891037, -39.63322499999998, -19.94135459999999, -10.541875600000008, 39.0, 12], [-49.9693037, -37.53502499999998, -23.13675459999999, -10.413445600000008, 40.0, 69], [-50.4888037, -34.27172499999998, -26.22625459999999, -9.428545600000009, 39.0, 5], [-48.4711037, -32.47352499999998, -29.184354599999992, -9.21864560000001, 40.0, 13], [-46.8901037, -31.60443499999998, -31.498154599999992, -8.394525600000009, 41.0, 266], [-45.210203699999994, -27.39763499999998, -36.03795459999999, -10.787625600000009, 42.0, 15], [-48.049303699999996, -34.02763499999998, -25.553054599999992, -11.208755600000009, 43.0, 21], [-46.8413037, -29.95323499999998, -30.316554599999993, -13.821655600000009, 44.0, 48], [-46.054403699999995, -39.51953499999998, -26.529854599999993, -6.3182556000000085, 43.0, 84], [-44.023403699999996, -37.66753499999999, -29.541954599999993, -6.315252600000009, 44.0, 5], [-44.95310369999999, -33.870434999999986, -34.184854599999994, -6.019552600000009, 43.0, 14], [-45.47260369999999, -30.607134999999985, -37.274354599999995, -5.034652600000009, 42.0, 6], [-48.70310369999999, -37.82063499999998, -25.631054599999995, -5.980782600000009, 43.0, 6], [-47.48330369999999, -35.72243499999998, -28.826454599999995, -5.8523526000000095, 44.0, 31], [-45.289003699999995, -31.172134999999983, -33.8024546, -8.577752600000009, 45.0, 139], [-45.618243699999994, -26.716934999999985, -38.3742546, -7.588952600000009, 44.0, 11], [-49.20984369999999, -32.94543499999999, -28.1353546, -8.743252600000009, 45.0, 3], [-47.47674369999999, -28.99103499999999, -32.8765546, -11.244952600000008, 46.0, 36], [-47.80594369999999, -24.53583499999999, -37.4483546, -10.256152600000009, 45.0, 4], [-47.527943699999994, -32.72393499999999, -34.3145546, -7.728552600000009, 44.0, 151], [-48.04741369999999, -29.46063499999999, -37.4040546, -6.7436326000000095, 43.0, 13], [-48.56691369999999, -26.19733499999999, -40.4935546, -5.75873260000001, 42.0, 3], [-46.70851369999999, -34.08333499999999, -38.829254600000006, -3.92033260000001, 41.0, 18], [-44.69081369999999, -32.28513499999999, -41.78735460000001, -3.7104326000000096, 42.0, 22], [-48.386913699999994, -45.96303499999999, -24.207854600000008, -6.32853260000001, 43.0, 6], [-55.423313699999994, -36.66993499999999, -24.04191460000001, -10.86813260000001, 44.0, 67], [-56.129013699999994, -31.171834999999987, -32.37871460000001, -7.99663260000001, 43.0, 43], [-54.34151369999999, -26.391834999999986, -37.51491460000001, -11.232832600000009, 44.0, 13], [-57.48381369999999, -39.42833499999999, -21.83761460000001, -11.894482600000009, 45.0, 4], [-55.99421369999999, -35.99953499999999, -25.868514600000008, -13.32038260000001, 46.0, 2], [-53.60251369999999, -31.443034999999988, -30.85731460000001, -16.219082600000007, 47.0, 41], [-54.12201369999999, -28.179734999999987, -33.94681460000001, -15.234182600000008, 46.0, 128], [-52.10431369999999, -26.381534999999985, -36.90491460000001, -15.024282600000008, 47.0, 42], [-50.24591369999999, -34.26753499999999, -35.240614600000015, -13.185882600000008, 46.0, 3], [-50.76541369999999, -31.004234999999987, -38.330114600000016, -12.200982600000009, 45.0, 127], [-49.978513699999986, -40.570534999999985, -34.54341460000001, -4.6975826000000085, 44.0, 54], [-47.78421369999999, -36.020234999999985, -39.51941460000001, -7.422982600000008, 45.0, 84], [-48.11341369999999, -31.565034999999988, -44.091214600000015, -6.434182600000008, 44.0, 10], [-50.12001369999999, -38.28403499999999, -35.07501460000002, -6.3341976000000075, 45.0, 81], [-48.529613699999985, -36.07193499999999, -38.193314600000015, -6.451447600000008, 46.0, 37], [-49.049113699999985, -32.80863499999999, -41.282814600000016, -5.466547600000008, 45.0, 26], [-49.568613699999986, -29.545334999999987, -44.37231460000002, -4.4816476000000085, 44.0, 6], [-52.799113699999985, -36.75883499999999, -32.72901460000001, -5.427777600000009, 45.0, 19], [-51.291413699999985, -34.79923499999999, -35.78741460000001, -5.550207600000008, 46.0, 82], [-51.810883699999984, -31.535934999999988, -38.87691460000001, -4.565287600000008, 45.0, 34], [-55.506983699999985, -45.21383499999999, -21.297414600000014, -7.1833876000000085, 46.0, 37], [-55.211783699999984, -40.32823499999999, -26.446414600000015, -13.415687600000009, 47.0, 29], [-53.761683699999985, -36.72153499999999, -30.502114600000013, 
-15.01228760000001, 48.0, 7], [-53.600603699999986, -30.25913499999999, -38.859414600000015, -13.49068760000001, 47.0, 101], [-54.12010369999999, -26.99583499999999, -41.948914600000016, -12.50578760000001, 
46.0, 11], [-56.126703699999986, -33.71483499999999, -32.93271460000002, -12.40580260000001, 47.0, 29], [-54.67660369999999, -30.108134999999987, -36.98841460000002, -14.00240260000001, 48.0, 102], [-55.005843699999986, -25.652934999999985, -41.56021460000002, -13.013602600000011, 47.0, 2], [-56.53804369999999, -30.749534999999984, -34.88231460000002, -12.838622600000011, 48.0, 12], [-54.52034369999999, -28.951334999999983, -37.840414600000024, -12.628722600000012, 49.0, 17], [-53.220343699999994, -39.21913499999998, -34.88741460000002, -6.764922600000012, 48.0, 21], [-51.62994369999999, -37.00703499999998, -38.00571460000002, -6.882172600000012, 49.0, 66], [-49.43564369999999, -32.45673499999998, -42.98171460000002, -9.607572600000012, 50.0, 27], [-48.64874369999999, -42.02303499999998, -39.195014600000015, -2.1041726000000116, 49.0, 17], [-48.97794369999999, -37.56783499999998, -43.76681460000002, -1.1153726000000117, 48.0, 21], [-49.49744369999999, -34.30453499999998, -46.85631460000002, -0.1304726000000117, 47.0, 4], [-54.61904369999999, -39.61633499999998, -36.47171460000002, -1.1916726000000115, 48.0, 2], [-52.22734369999999, -35.05983499999998, -41.46051460000002, -4.090372600000011, 49.0, 11], [-52.74681369999999, 
-31.796534999999977, -44.55001460000002, -3.105452600000011, 48.0, 18], [-56.35211369999999, -37.77053499999998, -34.45841460000002, -3.933912600000011, 49.0, 14], [-56.87161369999999, -34.50723499999998, -37.54791460000002, -2.9490126000000108, 48.0, 36], [-55.08411369999999, -29.72723499999998, -42.68411460000002, -6.1852126000000105, 49.0, 34], [-59.10141369999999, -38.03953499999998, -30.22941460000002, -7.6227126000000105, 50.0, 9], [-57.36831369999999, -34.08513499999998, -34.97061460000002, -10.12441260000001, 51.0, 11], [-57.20723369999999, -27.62273499999998, -43.32791460000002, -8.60281260000001, 50.0, 10], [-58.60403369999999, -37.29253499999998, -33.86271460000002, -8.95153260000001, 51.0, 11], [-57.09633369999999, -35.33293499999998, -36.92111460000002, -9.07396260000001, 52.0, 234], [-55.06533369999999, -33.48093499999998, -39.933214600000014, -9.07095960000001, 53.0, 239], [-55.58483369999999, -30.21763499999998, -43.022714600000015, -8.086059600000011, 52.0, 68], [-59.33513369999999, -43.67623499999998, 
-25.429514600000015, -10.86315960000001, 53.0, 79], [-60.26483369999999, -39.87913499999998, -30.072414600000016, -10.56745960000001, 52.0, 12], [-59.05683369999999, -35.80473499999998, -34.83591460000002, -13.18035960000001, 53.0, 46], [-59.57633369999999, -32.54143499999998, -37.92541460000002, -12.19545960000001, 52.0, 1], [-59.90557369999999, -28.08623499999998, -42.49721460000002, -11.20665960000001, 51.0, 7], [-58.04717369999999, -35.97223499999998, -40.832914600000024, -9.36825960000001, 50.0, 25], [-55.85287369999999, -31.421934999999984, -45.80891460000002, -12.093659600000011, 51.0, 11], [-59.45407369999999, -37.96083499999998, -35.28551460000002, -12.583329600000011, 52.0, 14], [-59.29299369999999, -31.498434999999983, -43.64281460000002, -11.061729600000012, 51.0, 7], [-62.89149369999999, -45.15773499999998, -26.037614600000023, -13.554429600000013, 52.0, 3], [-61.83629369999999, -43.972034999999984, -28.67871460000002, -13.444099600000014, 53.0, 110], [-59.44459369999999, -39.415534999999984, -33.66751460000002, -16.342799600000014, 54.0, 43], [-57.41359369999999, -37.56353499999999, -36.67961460000002, -16.339796600000014, 55.0, 121], [-55.395893699999995, -35.765334999999986, -39.637714600000024, -16.129896600000013, 56.0, 106], [-55.725093699999995, -31.31013499999999, -44.20951460000002, -15.141096600000013, 55.0, 12], [-53.077193699999995, -41.44753499999999, -42.87851460000002, -9.670396600000014, 54.0, 12], [-53.596693699999996, -38.18423499999999, -45.96801460000002, -8.685496600000015, 53.0, 20], [-56.68329369999999, -44.82043499999999, -35.427514600000016, -9.577316600000014, 54.0, 67], [-55.00339369999999, -40.61363499999999, -39.967314600000016, -11.970416600000014, 55.0, 41], [-55.52286369999999, -37.35033499999999, -43.05681460000002, -10.985496600000014, 54.0, 12]]
average error = 0.014

T = 9
weights followed by counts = [[-3.8244, 3.1081, -2.4537, -0.52024, -1.0, 3], [-7.741, -7.141, 1.6389, 3.94566, -2.0, 4], [-11.0107, -2.7996, -2.0495, 4.24395, -3.0, 23], [-10.27003, -1.0696999999999999, -5.2458, 4.09825, -2.0, 2], [-11.042910000000001, -8.517, 1.2462, 4.45944, -1.0, 13], [-10.50355, -4.622599999999999, -3.5704000000000002, 0.11763999999999974, 0.0, 7], [-8.11185, -0.0660999999999996, -8.5592, -2.78106, 1.0, 3], [-9.85975, 
-5.8891, -2.6893000000000002, -1.5690600000000001, 2.0, 9], [-8.40965, -2.2824, -6.745, -3.16566, 3.0, 3], [-9.22321, -11.439, -4.5958000000000006, 1.01574, 2.0, 11], [-15.10501, -3.7805999999999997, -4.040000000000001, -1.8997600000000001, 3.0, 7], [-14.31811, -13.3469, -0.25330000000000075, 5.60364, 2.0, 4], [-17.72641, -8.488199999999999, -1.0221800000000008, 0.7368400000000008, 3.0, 31], [-18.245910000000002, -5.224899999999999, -4.111680000000001, 1.721740000000001, 2.0, 3], [-17.95071, -0.3392999999999988, -9.26068, -4.51056, 3.0, 4], [-15.302810000000001, -10.476699999999997, -7.929680000000001, 0.96014, 2.0, 17], [-14.56521, -5.624199999999997, -12.728280000000002, -4.70576, 3.0, 15], [-17.13171, -12.506599999999997, -5.186680000000002, -3.9980199999999995, 4.0, 5], [-16.53121, -10.573899999999997, -8.475480000000001, -4.32217, 5.0, 14], [-14.851310000000002, -6.367099999999996, -13.01528, -6.71527, 6.0, 2], [-14.687730000000002, -9.725499999999997, -11.64038, -5.358370000000001, 7.0, 56], [-13.106730000000002, 
